{"learner":{"attributes":{"best_iteration":"99","best_ntree_limit":"100","scikit_learn":"{\"n_estimators\": 100, \"objective\": \"reg:squarederror\", \"max_depth\": null, \"max_leaves\": null, \"max_bin\": null, \"grow_policy\": null, \"learning_rate\": null, \"verbosity\": null, \"booster\": null, \"tree_method\": null, \"gamma\": null, \"min_child_weight\": null, \"max_delta_step\": null, \"subsample\": null, \"sampling_method\": null, \"colsample_bytree\": null, \"colsample_bylevel\": null, \"colsample_bynode\": null, \"reg_alpha\": null, \"reg_lambda\": null, \"scale_pos_weight\": null, \"base_score\": null, \"missing\": NaN, \"num_parallel_tree\": null, \"random_state\": 42, \"n_jobs\": null, \"monotone_constraints\": null, \"interaction_constraints\": null, \"importance_type\": null, \"gpu_id\": null, \"validate_parameters\": null, \"predictor\": null, \"enable_categorical\": false, \"feature_types\": null, \"max_cat_to_onehot\": null, \"max_cat_threshold\": null, \"eval_metric\": null, \"early_stopping_rounds\": null, \"callbacks\": null, \"_estimator_type\": \"regressor\"}"},"feature_names":["material_cost_crore","vendor_performance_rating","historical_delays_project_count","project_type_Overhead Line","project_type_Substation","project_type_Underground Cable","terrain_Hilly","terrain_Plain","terrain_Urban"],"feature_types":["float","float","float","float","float","float","float","float","float"],"gradient_booster":{"model":{"gbtree_model_param":{"num_parallel_tree":"1","num_trees":"100","size_leaf_vector":"0"},"tree_info":[0,0,0,0,0,0,0,0,0,0,0,0,0,0,0,0,0,0,0,0,0,0,0,0,0,0,0,0,0,0,0,0,0,0,0,0,0,0,0,0,0,0,0,0,0,0,0,0,0,0,0,0,0,0,0,0,0,0,0,0,0,0,0,0,0,0,0,0,0,0,0,0,0,0,0,0,0,0,0,0,0,0,0,0,0,0,0,0,0,0,0,0,0,0,0,0,0,0,0,0],"trees":[{"base_weights":[1.8158824E2,2.628889E2,8.0111115E1,1.475E1,8.64375E1],"categories":[],"categories_nodes":[],"categories_segments":[],"categories_sizes":[],"default_left":[1,0,1,0,0],"id":0,"left_children":[1,-1,3,-1,-1],"loss_changes":[1.19192375E5,0E0,2.4465469E3,0E0,0E0],"parents":[2147483647,0,0,2,2],"right_children":[2,-1,4,-1,-1],"split_conditions":[3.5E0,7.886667E1,5E-1,4.425E0,2.5931252E1],"split_indices":[1,0,2,0,0],"split_type":[0,0,0,0,0],"sum_hessian":[1.6E1,8E0,8E0,1E0,7E0],"tree_param":{"num_deleted":"0","num_feature":"9","num_nodes":"5","size_leaf_vector":"0"}},{"base_weights":[1.3353664E2,7.641302E1,2.2552777E2,9.577187E1,3.015625E1,1.09839584E2,3.5712498E1],"categories":[],"categories_nodes":[],"categories_segments":[],"categories_sizes":[],"default_left":[1,1,0,1,0,0,0],"id":1,"left_children":[1,3,-1,5,-1,-1,-1],"loss_changes":[7.209947E4,7.857617E3,0E0,2.836539E3,0E0,0E0,0E0],"parents":[2147483647,0,0,1,1,3,3],"right_children":[2,4,-1,6,-1,-1,-1],"split_conditions":[5.5E0,4.5E0,6.765833E1,5E-1,9.046875E0,3.2951878E1,1.071375E1],"split_indices":[2,1,0,7,0,0,0],"split_type":[0,0,0,0,0,0,0],"sum_hessian":[1.6E1,1.1E1,5E0,7E0,4E0,5E0,2E0],"tree_param":{"num_deleted":"0","num_feature":"9","num_nodes":"7","size_leaf_vector":"0"}},{"base_weights":[1.0055629E2,1.8238E2,6.135053E1,7.588479E1,2.2918749E1,8.532188E1,2.857E1,2.8014582E1,1.0183333E1],"categories":[],"categories_nodes":[],"categories_segments":[],"categories_sizes":[],"default_left":[1,0,1,1,1,0,0,0,0],"id":2,"left_children":[1,-1,3,5,7,-1,-1,-1,-1],"loss_changes":[4.3346234E4,0E0,5.522324E3,1.5809727E3,3.9206055E1,0E0,0E0,0E0,0E0],"parents":[2147483647,0,0,2,2,3,3,4,4],"right_children":[2,-1,4,6,8,-1,-1,-1,-1],"split_conditions":[2.5E0,5.4714005E1,4.5E0,5E-1,5E-1,2.5596563E1,8.571E0,8.404375E0,3.055E0],"split_indices":[1,0,1,7,7,0,0,0,0],"split_type":[0,0,0,0,0,0,0,0,0],"sum_hessian":[1.6E1,4E0,1.2E1,8E0,4E0,6E0,2E0,2E0,2E0],"tree_param":{"num_deleted":"0","num_feature":"9","num_nodes":"9","size_leaf_vector":"0"}},{"base_weights":[7.629181E1,1.386088E2,4.6455135E1,1.3889375E1,5.4835926E1,6.298184E1,2.6871601E1],"categories":[],"categories_nodes":[],"categories_segments":[],"categories_sizes":[],"default_left":[1,0,1,0,1,0,0],"id":3,"left_children":[1,-1,3,-1,5,-1,-1],"loss_changes":[2.5169547E4,0E0,2.7864102E3,0E0,5.855293E2,0E0,0E0],"parents":[2147483647,0,0,2,2,4,4],"right_children":[2,-1,4,-1,6,-1,-1],"split_conditions":[2.5E0,4.158264E1,1.5E0,4.1668124E0,5E-1,1.8894552E1,8.0614805E0],"split_indices":[1,0,2,0,4,0,0],"split_type":[0,0,0,0,0,0,0],"sum_hessian":[1.6E1,4E0,1.2E1,3E0,9E0,6E0,3E0],"tree_param":{"num_deleted":"0","num_feature":"9","num_nodes":"7","size_leaf_vector":"0"}},{"base_weights":[5.768106E1,3.6467354E1,1.1750877E2,4.528246E1,1.1543669E1,4.9727238E1,1.833557E1],"categories":[],"categories_nodes":[],"categories_segments":[],"categories_sizes":[],"default_left":[1,1,0,1,0,0,0],"id":4,"left_children":[1,3,-1,5,-1,-1,-1],"loss_changes":[1.729061E4,2.5531426E3,0E0,2.8595312E2,0E0,0E0,0E0],"parents":[2147483647,0,0,1,1,3,3],"right_children":[2,4,-1,6,-1,-1,-1],"split_conditions":[7.5E0,5E-1,3.5252632E1,4.5E0,3.4631007E0,1.4918172E1,5.500671E0],"split_indices":[2,7,0,1,0,0,0],"split_type":[0,0,0,0,0,0,0],"sum_hessian":[1.6E1,1.3E1,3E0,9E0,4E0,7E0,2E0],"tree_param":{"num_deleted":"0","num_feature":"9","num_nodes":"7","size_leaf_vector":"0"}},{"base_weights":[4.3855247E1,2.7233002E1,9.106929E1,3.373961E1,8.773188E0,3.667384E1,1.4668454E1,1.3463173E1,4.2348976E0],"categories":[],"categories_nodes":[],"categories_segments":[],"categories_sizes":[],"default_left":[1,1,0,1,1,0,0,0,0],"id":5,"left_children":[1,3,-1,5,7,-1,-1,-1,-1],"loss_changes":[1.08615625E4,1.3855469E3,0E0,2.1642578E1,4.940741E1,0E0,0E0,0E0,0E0],"parents":[2147483647,0,0,1,1,3,3,4,4],"right_children":[2,4,-1,6,8,-1,-1,-1,-1],"split_conditions":[7.5E0,5E-1,2.7320787E1,4.5E0,1.775E2,1.1002152E1,4.4005365E0,4.038952E0,1.2704693E0],"split_indices":[2,7,0,1,0,0,0,0,0],"split_type":[0,0,0,0,0,0,0,0,0],"sum_hessian":[1.6E1,1.3E1,3E0,9E0,4E0,7E0,2E0,1E0,3E0],"tree_param":{"num_deleted":"0","num_feature":"9","num_nodes":"9","size_leaf_vector":"0"}},{"base_weights":[3.352413E1,2.2113361E1,7.940328E1,2.8231432E1,8.231016E0,1.2085972E1,3.2820454E0],"categories":[],"categories_nodes":[],"categories_segments":[],"categories_sizes":[],"default_left":[1,1,0,0,1,0,0],"id":6,"left_children":[1,3,-1,-1,5,-1,-1],"loss_changes":[7.1439062E3,1.0416245E3,0E0,0E0,7.480167E1,0E0,0E0],"parents":[2147483647,0,0,1,1,4,4],"right_children":[2,4,-1,-1,6,-1,-1],"split_conditions":[8.5E0,5E-1,2.3820986E1,8.46943E0,5E-1,3.6257918E0,9.8461366E-1],"split_indices":[2,4,0,0,7,0,0],"split_type":[0,0,0,0,0,0,0],"sum_hessian":[1.6E1,1.4E1,2E0,9E0,5E0,2E0,3E0],"tree_param":{"num_deleted":"0","num_feature":"9","num_nodes":"7","size_leaf_vector":"0"}},{"base_weights":[2.5637527E1,1.6351341E1,6.3522625E1,3.3125129E0,1.9335005E1,7.909374E-1,3.8893921E0,2.1945488E1,8.627666E0,8.717984E0,2.447935E1],"categories":[],"categories_nodes":[],"categories_segments":[],"categories_sizes":[],"default_left":[1,1,0,1,1,0,0,1,0,0,0],"id":7,"left_children":[1,3,-1,5,7,-1,-1,9,-1,-1,-1],"loss_changes":[4.9420576E3,5.195049E2,0E0,2.7423134E0,1.4607764E2,0E0,0E0,8.823926E1,0E0,0E0,0E0],"parents":[2147483647,0,0,1,1,3,3,4,4,7,7],"right_children":[2,4,-1,6,8,-1,-1,10,-1,-1,-1],"split_conditions":[8.5E0,1.5E0,1.9056787E1,2.15E2,5E-1,2.3728123E-1,1.1668177E0,2.5E0,2.5883E0,2.6153953E0,7.343805E0],"split_indices":[2,2,0,0,4,0,0,2,0,0,0],"split_type":[0,0,0,0,0,0,0,0,0,0,0],"sum_hessian":[1.6E1,1.4E1,2E0,3E0,1.1E1,1E0,2E0,8E0,3E0,2E0,6E0],"tree_param":{"num_deleted":"0","num_feature":"9","num_nodes":"11","size_leaf_vector":"0"}},{"base_weights":[1.9887936E1,1.2376041E1,5.0818096E1,2.6697836E0,1.4580124E1,1.0886345E0,3.7066154E0,1.6468414E1,6.6864405E0,6.9743857E0,1.8184652E1,1.4580173E0,7.9432425E0],"categories":[],"categories_nodes":[],"categories_segments":[],"categories_sizes":[],"default_left":[1,1,0,1,1,0,0,1,1,0,0,0,0],"id":8,"left_children":[1,3,-1,5,7,-1,-1,9,11,-1,-1,-1,-1],"loss_changes":[3.3209219E3,2.819751E2,0E0,2.5223942E0,6.875171E1,0E0,0E0,1.981958E1,1.4702988E1,0E0,0E0,0E0,0E0],"parents":[2147483647,0,0,1,1,3,3,4,4,7,7,8,8],"right_children":[2,4,-1,6,8,-1,-1,10,12,-1,-1,-1,-1],"split_conditions":[8.5E0,1.5E0,1.5245429E1,2.65E2,5E-1,3.2659036E-1,1.1119847E0,2.5E0,2E2,2.092316E0,5.4553957E0,4.3740523E-1,2.382973E0],"split_indices":[2,2,0,0,4,0,0,2,0,0,0,0,0],"split_type":[0,0,0,0,0,0,0,0,0,0,0,0,0],"sum_hessian":[1.6E1,1.4E1,2E0,3E0,1.1E1,2E0,1E0,8E0,3E0,2E0,6E0,1E0,2E0],"tree_param":{"num_deleted":"0","num_feature":"9","num_nodes":"13","size_leaf_vector":"0"}},{"base_weights":[1.5512856E1,9.45034E0,4.065448E1,2.2284923E0,1.1070095E1,8.709075E-1,3.1506233E0,1.2366527E1,5.385601E0,3.0006943E0,1.31621685E1,1.239315E0,6.3545914E0,5.5795083E0,1.4759804E1],"categories":[],"categories_nodes":[],"categories_segments":[],"categories_sizes":[],"default_left":[1,1,0,1,1,0,0,1,1,0,1,0,0,0,0],"id":9,"left_children":[1,3,-1,5,7,-1,-1,9,11,-1,13,-1,-1,-1,-1],"loss_changes":[2.2069666E3,1.5079468E2,0E0,2.2635822E0,2.1833496E1,0E0,0E0,2.7570923E1,8.195503E0,0E0,1.4562134E1,0E0,0E0,0E0,0E0],"parents":[2147483647,0,0,1,1,3,3,4,4,7,7,8,8,10,10],"right_children":[2,4,-1,6,8,-1,-1,10,12,-1,14,-1,-1,-1,-1],"split_conditions":[8.5E0,1.5E0,1.2196344E1,2.65E2,5E-1,2.6127225E-1,9.4518703E-1,1.55E2,2E2,9.002083E-1,2.5E0,3.7179452E-1,1.9063774E0,1.6738526E0,4.4279413E0],"split_indices":[2,2,0,0,4,0,0,0,0,0,2,0,0,0,0],"split_type":[0,0,0,0,0,0,0,0,0,0,0,0,0,0,0],"sum_hessian":[1.6E1,1.4E1,2E0,3E0,1.1E1,2E0,1E0,8E0,3E0,1E0,7E0,1E0,2E0,2E0,5E0],"tree_param":{"num_deleted":"0","num_feature":"9","num_nodes":"15","size_leaf_vector":"0"}},{"base_weights":[1.2193289E1,7.314345E0,3.252358E1,1.8615584E0,8.522411E0,6.9672585E-1,2.678028E0,9.471034E0,4.257408E0,1.1313575E1,4.339464E0,4.4636054E0,1.3622658E1,1.0534172E0,5.083674E0],"categories":[],"categories_nodes":[],"categories_segments":[],"categories_sizes":[],"default_left":[1,1,0,1,1,0,0,1,0,1,1,0,0,0,0],"id":10,"left_children":[1,3,-1,5,7,-1,-1,9,-1,11,13,-1,-1,-1,-1],"loss_changes":[1.4483472E3,8.294495E1,0E0,1.9383507E0,8.228455E0,0E0,0E0,3.600122E1,0E0,3.409674E1,4.4268036E0,0E0,0E0,0E0,0E0],"parents":[2147483647,0,0,1,1,3,3,4,4,7,7,9,9,10,10],"right_children":[2,4,-1,6,8,-1,-1,10,-1,12,14,-1,-1,-1,-1],"split_conditions":[8.5E0,1.5E0,9.757074E0,2.65E2,5E-1,2.0901777E-1,8.0340844E-1,5E-1,1.2772225E0,2.5E0,2E2,1.3390816E0,4.0867977E0,3.1602517E-1,1.5251023E0],"split_indices":[2,2,0,0,6,0,0,4,0,2,0,0,0,0,0],"split_type":[0,0,0,0,0,0,0,0,0,0,0,0,0,0,0],"sum_hessian":[1.6E1,1.4E1,2E0,3E0,1.1E1,2E0,1E0,8E0,3E0,5E0,3E0,2E0,3E0,1E0,2E0],"tree_param":{"num_deleted":"0","num_feature":"9","num_nodes":"15","size_leaf_vector":"0"}},{"base_weights":[9.671405E0,3.2014145E1,6.2740993E0,7.7019835E0,2.6106284E0,8.940481E0,3.299492E0,4.0669403E0,8.6573744E-1,3.8163261E0,1.1251709E1],"categories":[],"categories_nodes":[],"categories_segments":[],"categories_sizes":[],"default_left":[1,0,1,1,1,1,0,0,0,0,0],"id":11,"left_children":[1,-1,3,5,7,9,-1,-1,-1,-1,-1],"loss_changes":[1.089527E3,0E0,6.358911E1,3.047821E1,1.1725731E1,5.1804504E1,0E0,0E0,0E0,0E0,0E0],"parents":[2147483647,0,0,2,2,3,3,4,4,5,5],"right_children":[2,-1,4,6,8,10,-1,-1,-1,-1,-1],"split_conditions":[1.5E0,9.604244E0,5E-1,5E-1,5E-1,2.5E0,9.898476E-1,1.2200822E0,2.5972125E-1,1.1448979E0,3.3755128E0],"split_indices":[1,0,4,6,7,2,0,0,0,0,0],"split_type":[0,0,0,0,0,0,0,0,0,0,0],"sum_hessian":[1.6E1,1E0,1.5E1,1E1,5E0,7E0,3E0,2E0,3E0,3E0,4E0],"tree_param":{"num_deleted":"0","num_feature":"9","num_nodes":"11","size_leaf_vector":"0"}},{"base_weights":[7.746117E0,2.721202E1,4.828747E0,1.1401129E0,5.5922694E0,3.8423285E-1,1.7038765E0,6.2471075E0,2.557106E0,7.3113327E0,2.822937E0,2.8076198E0,8.551294E0,7.655449E-1,3.2535527E0],"categories":[],"categories_nodes":[],"categories_segments":[],"categories_sizes":[],"default_left":[1,0,1,1,1,0,0,1,0,1,1,0,0,0,0],"id":12,"left_children":[1,-1,3,5,7,-1,-1,9,-1,11,13,-1,-1,-1,-1],"loss_changes":[8.340173E2,0E0,3.8685852E1,1.0498652E0,9.863525E0,0E0,0E0,1.5801453E1,0E0,1.5082214E1,1.0530396E0,0E0,0E0,0E0,0E0],"parents":[2147483647,0,0,2,2,3,3,4,4,7,7,9,9,10,10],"right_children":[2,-1,4,6,8,-1,-1,10,-1,12,14,-1,-1,-1,-1],"split_conditions":[1.5E0,8.163607E0,1.5E0,2.65E2,5E-1,1.1526986E-1,5.11163E-1,5E-1,7.6713187E-1,2.5E0,2E2,8.42286E-1,2.5653884E0,2.2966348E-1,9.760658E-1],"split_indices":[1,0,2,0,6,0,0,4,0,2,0,0,0,0,0],"split_type":[0,0,0,0,0,0,0,0,0,0,0,0,0,0,0],"sum_hessian":[1.6E1,1E0,1.5E1,3E0,1.2E1,2E0,1E0,9E0,3E0,6E0,3E0,2E0,4E0,1E0,2E0],"tree_param":{"num_deleted":"0","num_feature":"9","num_nodes":"15","size_leaf_vector":"0"}},{"base_weights":[6.2558455E0,2.3130219E1,3.7555585E0,9.546876E-1,4.3284755E0,3.073864E-1,1.4482956E0,3.4824202E0,7.24057E0,8.636093E-2,3.7471867E-1,2.5321026E0,5.4893394E0],"categories":[],"categories_nodes":[],"categories_segments":[],"categories_sizes":[],"default_left":[1,0,1,1,1,1,0,1,0,0,0,0,0],"id":13,"left_children":[1,-1,3,5,7,9,-1,11,-1,-1,-1,-1,-1],"loss_changes":[6.3037634E2,0E0,2.1542328E1,8.3286595E-1,6.8146057E0,1.2285382E-2,0E0,8.986969E0,0E0,0E0,0E0,0E0,0E0],"parents":[2147483647,0,0,2,2,3,3,4,4,5,5,7,7],"right_children":[2,-1,4,6,8,10,-1,12,-1,-1,-1,-1,-1],"split_conditions":[1.5E0,6.939066E0,1.5E0,2.65E2,2.725E2,2.15E2,4.3448868E-1,7.5E0,2.172171E0,2.590828E-2,1.12415604E-1,7.596308E-1,1.6468018E0],"split_indices":[1,0,2,0,0,0,0,2,0,0,0,0,0],"split_type":[0,0,0,0,0,0,0,0,0,0,0,0,0],"sum_hessian":[1.6E1,1E0,1.5E1,3E0,1.2E1,2E0,1E0,1.1E1,1E0,1E0,1E0,9E0,2E0],"tree_param":{"num_deleted":"0","num_feature":"9","num_nodes":"13","size_leaf_vector":"0"}},{"base_weights":[5.090299E0,1.966069E1,2.9508567E0,3.599891E0,1.2691507E0,4.2438335E0,1.4120331E0,2.0964253E0,3.3140707E-1,1.9202843E0,5.2539062E0],"categories":[],"categories_nodes":[],"categories_segments":[],"categories_sizes":[],"default_left":[1,0,1,1,1,1,0,0,0,0,0],"id":14,"left_children":[1,-1,3,5,7,9,-1,-1,-1,-1,-1],"loss_changes":[4.7191687E2,0E0,1.28949585E1,9.504959E0,3.959858E0,8.6866455E0,0E0,0E0,0E0,0E0,0E0],"parents":[2147483647,0,0,2,2,3,3,4,4,5,5],"right_children":[2,-1,4,6,8,10,-1,-1,-1,-1,-1],"split_conditions":[1.5E0,5.898207E0,5E-1,5E-1,5E-1,2.5E0,4.2360994E-1,6.289276E-1,9.942213E-2,5.760853E-1,1.576172E0],"split_indices":[1,0,4,6,7,2,0,0,0,0,0],"split_type":[0,0,0,0,0,0,0,0,0,0,0],"sum_hessian":[1.6E1,1E0,1.5E1,1E1,5E0,7E0,3E0,2E0,3E0,3E0,4E0],"tree_param":{"num_deleted":"0","num_feature":"9","num_nodes":"11","size_leaf_vector":"0"}},{"base_weights":[4.104529E0,1.6711594E1,2.2721128E0,1.695356E0,4.2062736E0,7.4514747E-1,2.5391147E0,5.3664017E0,9.430084E-1,9.64462E-1,-3.9502716E-1,3.3491287E0,1.0943222E0,1.4309673E0,2.5684118E-1,1.6771418E0,3.4622192E-1],"categories":[],"categories_nodes":[],"categories_segments":[],"categories_sizes":[],"default_left":[1,0,1,1,1,1,1,0,0,1,0,0,0,1,0,0,0],"id":15,"left_children":[1,-1,3,5,7,9,11,-1,-1,13,-1,-1,-1,15,-1,-1,-1],"loss_changes":[3.54753E2,0E0,1.0717514E1,9.332443E0,6.2968597E0,2.381444E0,4.527088E0,0E0,0E0,1.9432302E0,0E0,0E0,0E0,4.8748398E-1,0E0,0E0,0E0],"parents":[2147483647,0,0,2,2,3,3,4,4,5,5,6,6,9,9,13,13],"right_children":[2,-1,4,6,8,10,12,-1,-1,14,-1,-1,-1,16,-1,-1,-1],"split_conditions":[1.5E0,5.0134783E0,2.725E2,5E-1,2.9E2,2.575E2,5E-1,1.6099206E0,2.8290254E-1,5E-1,-1.1850815E-1,1.0047387E0,3.2829666E-1,2.35E2,7.7052355E-2,5.0314254E-1,1.03866585E-1],"split_indices":[1,0,0,3,0,0,6,0,0,7,0,0,0,0,0,0,0],"split_type":[0,0,0,0,0,0,0,0,0,0,0,0,0,0,0,0,0],"sum_hessian":[1.6E1,1E0,1.5E1,1.3E1,2E0,7E0,6E0,1E0,1E0,6E0,1E0,3E0,3E0,3E0,3E0,2E0,1E0],"tree_param":{"num_deleted":"0","num_feature":"9","num_nodes":"17","size_leaf_vector":"0"}},{"base_weights":[3.3911052E0,1.4204849E1,1.827443E0,1.3223641E0,3.57533E0,8.750386E-1,2.6708782E0,4.5614395E0,8.0155563E-1,1.0156366E0,-3.3576965E-1,1.4362781E-1,1.1934577E0,-1.4831543E-2,2.3027325E-1,2.5785828E-1,1.2781754E0],"categories":[],"categories_nodes":[],"categories_segments":[],"categories_sizes":[],"default_left":[1,0,1,1,1,1,0,0,0,1,0,1,1,0,0,0,0],"id":16,"left_children":[1,-1,3,5,7,9,-1,-1,-1,11,-1,13,15,-1,-1,-1,-1],"loss_changes":[2.6149518E2,0E0,9.397251E0,6.1080227E0,4.549488E0,2.3838663E0,0E0,0E0,0E0,1.5342636E0,0E0,4.4604648E-2,3.8376713E-1,0E0,0E0,0E0,0E0],"parents":[2147483647,0,0,2,2,3,3,4,4,5,5,9,9,11,11,12,12],"right_children":[2,-1,4,6,8,10,-1,-1,-1,12,-1,14,16,-1,-1,-1,-1],"split_conditions":[1.5E0,4.261455E0,2.725E2,7.5E0,2.9E2,2.575E2,8.012635E-1,1.3684319E0,2.404667E-1,1.5E0,-1.007309E-1,2.15E2,2.5E0,-4.449463E-3,6.908198E-2,7.7357486E-2,3.8345262E-1],"split_indices":[1,0,0,2,0,0,0,0,0,2,0,0,1,0,0,0,0],"split_type":[0,0,0,0,0,0,0,0,0,0,0,0,0,0,0,0,0],"sum_hessian":[1.6E1,1E0,1.5E1,1.3E1,2E0,1.1E1,2E0,1E0,1E0,1E1,1E0,2E0,8E0,1E0,1E0,1E0,7E0],"tree_param":{"num_deleted":"0","num_feature":"9","num_nodes":"17","size_leaf_vector":"0"}},{"base_weights":[2.7912042E0,1.2074127E1,1.4563885E0,1.0132234E0,3.0390294E0,6.4791936E-1,2.1366985E0,3.8772202E0,6.81324E-1,8.610272E-1,6.4468384E-3,-1.2607574E-2,9.718075E-1,1.9886272E-1,-2.854004E-1,8.5990906E-2,1.0860683E0],"categories":[],"categories_nodes":[],"categories_segments":[],"categories_sizes":[],"default_left":[1,0,1,1,1,1,0,0,0,1,1,0,1,0,0,0,0],"id":17,"left_children":[1,-1,3,5,7,9,-1,-1,-1,11,13,-1,15,-1,-1,-1,-1],"loss_changes":[1.9306221E2,0E0,8.142727E0,4.361331E0,3.2869759E0,1.6348834E0,0E0,0E0,0E0,8.83286E-1,2.8137967E-1,0E0,7.163205E-1,0E0,0E0,0E0,0E0],"parents":[2147483647,0,0,2,2,3,3,4,4,5,5,9,9,10,10,12,12],"right_children":[2,-1,4,6,8,10,-1,-1,-1,12,14,-1,16,-1,-1,-1,-1],"split_conditions":[1.5E0,3.6222384E0,2.725E2,7.5E0,2.9E2,2.25E2,6.4100957E-1,1.163166E0,2.0439722E-1,1.5E0,2.575E2,-3.7822726E-3,1.55E2,5.9658818E-2,-8.562012E-2,2.5797272E-2,3.258205E-1],"split_indices":[1,0,0,2,0,0,0,0,0,2,0,0,0,0,0,0,0],"split_type":[0,0,0,0,0,0,0,0,0,0,0,0,0,0,0,0,0],"sum_hessian":[1.6E1,1E0,1.5E1,1.3E1,2E0,1.1E1,2E0,1E0,1E0,8E0,3E0,1E0,7E0,2E0,1E0,1E0,6E0],"tree_param":{"num_deleted":"0","num_feature":"9","num_nodes":"17","size_leaf_vector":"0"}},{"base_weights":[2.303999E0,1.02630005E1,1.1651237E0,7.780323E-1,2.5831757E0,4.803667E-1,1.7093506E0,3.295639E0,5.7912445E-1,6.1041224E-1,-1.1324056E-1,1.03458405E-1,7.2421837E-1,7.273102E-2,-2.4259186E-1,-1.0715485E-2,1.6590309E-1,5.6274414E-2,8.1159973E-1],"categories":[],"categories_nodes":[],"categories_segments":[],"categories_sizes":[],"default_left":[1,0,1,1,1,1,0,0,0,1,1,1,1,0,0,0,0,0,0],"id":18,"left_children":[1,-1,3,5,7,9,-1,-1,-1,11,13,15,17,-1,-1,-1,-1,-1,-1],"loss_changes":[1.4213559E2,0E0,6.7728577E0,3.0599842E0,2.374855E0,9.9547505E-1,0E0,0E0,0E0,5.02018E-1,8.981095E-2,2.3166388E-2,4.2125463E-1,0E0,0E0,0E0,0E0,0E0,0E0],"parents":[2147483647,0,0,2,2,3,3,4,4,5,5,9,9,10,10,11,11,12,12],"right_children":[2,-1,4,6,8,10,-1,-1,-1,12,14,16,18,-1,-1,-1,-1,-1,-1],"split_conditions":[1.5E0,3.0789003E0,2.725E2,7.5E0,2.9E2,2.4E2,5.128052E-1,9.8869175E-1,1.7373735E-1,1.5E0,2.575E2,2.15E2,2.5E0,2.1819307E-2,-7.277756E-2,-3.2146454E-3,4.977093E-2,1.6882325E-2,2.4347992E-1],"split_indices":[1,0,0,2,0,0,0,0,0,2,0,0,1,0,0,0,0,0,0],"split_type":[0,0,0,0,0,0,0,0,0,0,0,0,0,0,0,0,0,0,0],"sum_hessian":[1.6E1,1E0,1.5E1,1.3E1,2E0,1.1E1,2E0,1E0,1E0,9E0,2E0,2E0,7E0,1E0,1E0,1E0,1E0,1E0,6E0],"tree_param":{"num_deleted":"0","num_feature":"9","num_nodes":"19","size_leaf_vector":"0"}},{"base_weights":[1.9075104E0,8.7235565E0,9.3628526E-1,5.995334E-1,2.195699E0,3.575875E-1,1.3674723E0,2.8012924E0,4.9225616E-1,4.5798072E-1,-9.625244E-2,-4.865265E-2,5.196792E-1,6.1820984E-2,-2.0619965E-1,9.2847186E-1,2.7024242E-1],"categories":[],"categories_nodes":[],"categories_segments":[],"categories_sizes":[],"default_left":[1,0,1,1,1,1,0,0,0,1,1,0,1,0,0,0,0],"id":19,"left_children":[1,-1,3,5,7,9,-1,-1,-1,11,13,-1,15,-1,-1,-1,-1],"loss_changes":[1.04370834E2,0E0,5.469366E0,2.112204E0,1.715826E0,5.908313E-1,0E0,0E0,0E0,3.3786893E-1,6.488667E-2,0E0,6.6679883E-1,0E0,0E0,0E0,0E0],"parents":[2147483647,0,0,2,2,3,3,4,4,5,5,9,9,10,10,12,12],"right_children":[2,-1,4,6,8,10,-1,-1,-1,12,14,-1,16,-1,-1,-1,-1],"split_conditions":[1.5E0,2.617067E0,2.725E2,7.5E0,2.9E2,2.4E2,4.102417E-1,8.4038776E-1,1.4767686E-1,1.55E2,2.575E2,-1.4595795E-2,1.7E2,1.8546296E-2,-6.1859895E-2,2.7854156E-1,8.107273E-2],"split_indices":[1,0,0,2,0,0,0,0,0,0,0,0,0,0,0,0,0],"split_type":[0,0,0,0,0,0,0,0,0,0,0,0,0,0,0,0,0],"sum_hessian":[1.6E1,1E0,1.5E1,1.3E1,2E0,1.1E1,2E0,1E0,1E0,9E0,2E0,1E0,8E0,1E0,1E0,2E0,6E0],"tree_param":{"num_deleted":"0","num_feature":"9","num_nodes":"17","size_leaf_vector":"0"}},{"base_weights":[1.5892023E0,7.415024E0,7.616495E-1,4.705259E-1,1.8663431E0,2.7545342E-1,1.0939738E0,2.381096E0,4.1841888E-1,5.3640556E-1,1.2886874E-1,-4.135132E-2,7.4277496E-1,-1.8829918E-1,3.1883588E-1,7.293701E-3,-2.5592804E-1,6.5249634E-1,-1.1118412E-2],"categories":[],"categories_nodes":[],"categories_segments":[],"categories_sizes":[],"default_left":[1,0,1,1,1,1,0,0,0,1,1,0,0,1,1,0,0,0,0],"id":20,"left_children":[1,-1,3,5,7,9,-1,-1,-1,11,13,-1,-1,15,17,-1,-1,-1,-1],"loss_changes":[7.631233E1,0E0,4.267476E0,1.4013064E0,1.2396736E0,3.898931E-1,0E0,0E0,0E0,5.0764E-1,6.022999E-1,0E0,0E0,5.4777563E-2,6.67811E-1,0E0,0E0,0E0,0E0],"parents":[2147483647,0,0,2,2,3,3,4,4,5,5,9,9,10,10,13,13,14,14],"right_children":[2,-1,4,6,8,10,-1,-1,-1,12,14,-1,-1,16,18,-1,-1,-1,-1],"split_conditions":[1.5E0,2.2245073E0,2.725E2,7.5E0,2.9E2,1.7E2,3.2819214E-1,7.1432877E-1,1.2552567E-1,1.55E2,2.05E2,-1.2405396E-2,2.228325E-1,1.825E2,2.25E2,2.1881105E-3,-7.677841E-2,1.9574891E-1,-3.3355237E-3],"split_indices":[1,0,0,2,0,0,0,0,0,0,0,0,0,0,0,0,0,0,0],"split_type":[0,0,0,0,0,0,0,0,0,0,0,0,0,0,0,0,0,0,0],"sum_hessian":[1.6E1,1E0,1.5E1,1.3E1,2E0,1.1E1,2E0,1E0,1E0,3E0,8E0,1E0,2E0,3E0,5E0,1E0,2E0,2E0,3E0],"tree_param":{"num_deleted":"0","num_feature":"9","num_nodes":"19","size_leaf_vector":"0"}},{"base_weights":[1.3313121E0,6.302765E0,6.2667346E-1,3.7625694E-1,1.5863928E0,2.2017066E-1,8.751831E-1,2.0239334E0,3.5565567E-1,2.7174968E-1,-1.7359924E-1,-3.514862E-2,3.0595437E-1,5.9421796E-1,1.5961123E-1],"categories":[],"categories_nodes":[],"categories_segments":[],"categories_sizes":[],"default_left":[1,0,1,1,1,1,0,0,0,1,0,0,1,0,0],"id":21,"left_children":[1,-1,3,5,7,9,-1,-1,-1,11,-1,-1,13,-1,-1],"loss_changes":[5.5602547E1,0E0,3.2483816E0,8.975681E-1,8.9566946E-1,2.9089868E-1,0E0,0E0,0E0,1.2622494E-1,0E0,0E0,3.2700998E-1,0E0,0E0],"parents":[2147483647,0,0,2,2,3,3,4,4,5,5,9,9,12,12],"right_children":[2,-1,4,6,8,10,-1,-1,-1,12,-1,-1,14,-1,-1],"split_conditions":[1.5E0,1.8908296E0,2.725E2,7.5E0,2.9E2,2.575E2,2.6255494E-1,6.0718006E-1,1.066967E-1,1.55E2,-5.2079774E-2,-1.0544587E-2,1.7E2,1.782654E-1,4.788337E-2],"split_indices":[1,0,0,2,0,0,0,0,0,0,0,0,0,0,0],"split_type":[0,0,0,0,0,0,0,0,0,0,0,0,0,0,0],"sum_hessian":[1.6E1,1E0,1.5E1,1.3E1,2E0,1.1E1,2E0,1E0,1E0,1E1,1E0,1E0,9E0,2E0,7E0],"tree_param":{"num_deleted":"0","num_feature":"9","num_nodes":"15","size_leaf_vector":"0"}},{"base_weights":[1.1102009E0,5.3573456E0,5.0992024E-1,2.9381576E-1,1.3484344E0,1.6774638E-1,7.001546E-1,1.7203445E0,3.0230713E-1,2.0982517E-1,-1.4756012E-1,9.716153E-2,3.8269615E-1,3.4159088E-1,-1.1781426E-1,4.9007416E-1,3.0281067E-2],"categories":[],"categories_nodes":[],"categories_segments":[],"categories_sizes":[],"default_left":[1,0,1,1,1,1,0,0,0,1,0,1,1,0,0,0,0],"id":22,"left_children":[1,-1,3,5,7,9,-1,-1,-1,11,-1,13,15,-1,-1,-1,-1],"loss_changes":[4.0609318E1,0E0,2.5031157E0,5.99728E-1,6.471238E-1,1.9017443E-1,0E0,0E0,0E0,1.7705566E-1,0E0,4.606154E-1,1.3652658E-1,0E0,0E0,0E0,0E0],"parents":[2147483647,0,0,2,2,3,3,4,4,5,5,9,9,11,11,12,12],"right_children":[2,-1,4,6,8,10,-1,-1,-1,12,-1,14,16,-1,-1,-1,-1],"split_conditions":[1.5E0,1.6072037E0,2.725E2,7.5E0,2.9E2,2.575E2,2.100464E-1,5.161034E-1,9.069214E-2,5E-1,-4.4268038E-2,1.7E2,2.35E2,1.0247727E-1,-3.534428E-2,1.4702225E-1,9.084321E-3],"split_indices":[1,0,0,2,0,0,0,0,0,8,0,0,0,0,0,0,0],"split_type":[0,0,0,0,0,0,0,0,0,0,0,0,0,0,0,0,0],"sum_hessian":[1.6E1,1E0,1.5E1,1.3E1,2E0,1.1E1,2E0,1E0,1E0,1E1,1E0,7E0,3E0,3E0,4E0,2E0,1E0],"tree_param":{"num_deleted":"0","num_feature":"9","num_nodes":"17","size_leaf_vector":"0"}},{"base_weights":[9.302586E-1,4.5537415E0,4.1918206E-1,2.3345701E-1,1.1461716E0,1.3233662E-1,5.601196E-1,1.4622955E0,2.5696182E-1,2.4282391E-1,1.8727984E-2,5.2237194E-2,3.2505798E-1,1.22558594E-1,-3.0212784E-1,-1.752472E-2,9.588051E-2,4.162496E-1,2.5741577E-2,1.9724122E-1,-1.2542725E-1],"categories":[],"categories_nodes":[],"categories_segments":[],"categories_sizes":[],"default_left":[1,0,1,1,1,1,0,0,0,1,1,1,1,1,0,0,0,0,0,0,0],"id":23,"left_children":[1,-1,3,5,7,9,-1,-1,-1,11,13,15,17,19,-1,-1,-1,-1,-1,-1,-1],"loss_changes":[2.957306E1,0E0,1.8927407E0,3.8832724E-1,4.6754742E-1,1.4608015E-1,0E0,0E0,0E0,7.70562E-2,2.7023095E-1,1.0814203E-2,9.846565E-2,1.358608E-1,0E0,0E0,0E0,0E0,0E0,0E0,0E0],"parents":[2147483647,0,0,2,2,3,3,4,4,5,5,9,9,10,10,11,11,12,12,13,13],"right_children":[2,-1,4,6,8,10,-1,-1,-1,12,14,16,18,20,-1,-1,-1,-1,-1,-1,-1],"split_conditions":[1.5E0,1.3661225E0,2.725E2,7.5E0,2.9E2,2.5E0,1.680359E-1,4.3868867E-1,7.708855E-2,1.5E0,3.5E0,2.15E2,2.35E2,2.375E2,-9.0638354E-2,-5.257416E-3,2.8764153E-2,1.2487488E-1,7.7224732E-3,5.9172366E-2,-3.7628174E-2],"split_indices":[1,0,0,2,0,2,0,0,0,2,1,0,0,0,0,0,0,0,0,0,0],"split_type":[0,0,0,0,0,0,0,0,0,0,0,0,0,0,0,0,0,0,0,0,0],"sum_hessian":[1.6E1,1E0,1.5E1,1.3E1,2E0,1.1E1,2E0,1E0,1E0,5E0,6E0,2E0,3E0,5E0,1E0,1E0,1E0,2E0,1E0,4E0,1E0],"tree_param":{"num_deleted":"0","num_feature":"9","num_nodes":"21","size_leaf_vector":"0"}},{"base_weights":[7.7688384E-1,3.8706818E0,3.4160388E-1,1.816375E-1,9.742457E-1,9.988546E-2,4.4809976E-1,1.2429504E0,2.1841812E-1,1.9599311E-1,3.238133E-3,4.440117E-2,2.6068878E-1,8.93809E-2,-2.5680923E-1,-1.4896393E-2,8.1498146E-2,3.3299765E-1,2.1881104E-2,-1.10702515E-1,1.5153809E-1],"categories":[],"categories_nodes":[],"categories_segments":[],"categories_sizes":[],"default_left":[1,0,1,1,1,1,0,0,0,1,1,1,1,1,0,0,0,0,0,0,0],"id":24,"left_children":[1,-1,3,5,7,9,-1,-1,-1,11,13,15,17,19,-1,-1,-1,-1,-1,-1,-1],"loss_changes":[2.1571123E1,0E0,1.4422635E0,2.60215E-1,3.3780026E-1,1.10827915E-1,0E0,0E0,0E0,4.7269166E-2,1.7976223E-1,7.813308E-3,6.178531E-2,9.139538E-2,0E0,0E0,0E0,0E0,0E0,0E0,0E0],"parents":[2147483647,0,0,2,2,3,3,4,4,5,5,9,9,10,10,11,11,12,12,13,13],"right_children":[2,-1,4,6,8,10,-1,-1,-1,12,14,16,18,20,-1,-1,-1,-1,-1,-1,-1],"split_conditions":[1.5E0,1.1612046E0,2.725E2,7.5E0,2.9E2,2.5E0,1.3442993E-1,3.7288514E-1,6.552544E-2,1.5E0,3.5E0,2.15E2,2.35E2,1.55E2,-7.704277E-2,-4.468918E-3,2.4449445E-2,9.98993E-2,6.5643312E-3,-3.3210754E-2,4.5461427E-2],"split_indices":[1,0,0,2,0,2,0,0,0,2,1,0,0,0,0,0,0,0,0,0,0],"split_type":[0,0,0,0,0,0,0,0,0,0,0,0,0,0,0,0,0,0,0,0,0],"sum_hessian":[1.6E1,1E0,1.5E1,1.3E1,2E0,1.1E1,2E0,1E0,1E0,5E0,6E0,2E0,3E0,5E0,1E0,1E0,1E0,2E0,1E0,1E0,4E0],"tree_param":{"num_deleted":"0","num_feature":"9","num_nodes":"21","size_leaf_vector":"0"}},{"base_weights":[6.494489E-1,3.2900848E0,2.787788E-1,1.4115225E-1,8.2810974E-1,7.505766E-2,3.5847983E-1,1.0565109E0,1.8565369E-1,1.0539766E-1,-1.2934113E-1,1.955087E-2,2.0450363E-1,1.7588806E-1,-1.4167404E-1,2.8225708E-1,5.8582306E-2],"categories":[],"categories_nodes":[],"categories_segments":[],"categories_sizes":[],"default_left":[1,0,1,1,1,1,0,0,0,1,0,1,1,0,0,0,0],"id":25,"left_children":[1,-1,3,5,7,9,-1,-1,-1,11,-1,13,15,-1,-1,-1,-1],"loss_changes":[1.5722475E1,0E0,1.0927508E0,1.7419174E-1,2.4406815E-1,8.804976E-2,0E0,0E0,0E0,8.9589E-2,0E0,2.0135692E-1,4.0194154E-2,0E0,0E0,0E0,0E0],"parents":[2147483647,0,0,2,2,3,3,4,4,5,5,9,9,11,11,12,12],"right_children":[2,-1,4,6,8,10,-1,-1,-1,12,-1,14,16,-1,-1,-1,-1],"split_conditions":[1.5E0,9.870255E-1,2.725E2,7.5E0,2.9E2,2.575E2,1.0754395E-1,3.169533E-1,5.5696107E-2,2.05E2,-3.880234E-2,1.7E2,2.25E2,5.276642E-2,-4.2502213E-2,8.467713E-2,1.7574692E-2],"split_indices":[1,0,0,2,0,0,0,0,0,0,0,0,0,0,0,0,0],"split_type":[0,0,0,0,0,0,0,0,0,0,0,0,0,0,0,0,0],"sum_hessian":[1.6E1,1E0,1.5E1,1.3E1,2E0,1.1E1,2E0,1E0,1E0,1E1,1E0,6E0,4E0,3E0,3E0,2E0,2E0],"tree_param":{"num_deleted":"0","num_feature":"9","num_nodes":"17","size_leaf_vector":"0"}},{"base_weights":[5.4525805E-1,2.7965698E0,2.2976542E-1,1.1175483E-1,7.03893E-1,3.375473E-2,2.4540405E-1,8.9803314E-1,1.578064E-1,1.3658778E-1,-9.639587E-2,1.5998077E-1,9.811401E-3,-2.116801E-1,5.1020306E-2,4.6051025E-2,2.205836E-1,1.8647003E-1,-1.09939575E-1],"categories":[],"categories_nodes":[],"categories_segments":[],"categories_sizes":[],"default_left":[1,0,1,1,1,1,0,0,0,1,1,1,0,0,1,0,0,0,0],"id":26,"left_children":[1,-1,3,5,7,9,-1,-1,-1,11,13,15,-1,-1,17,-1,-1,-1,-1],"loss_changes":[1.1432074E1,0E0,8.165698E-1,1.3766159E-1,1.7633665E-1,1.4700434E-1,0E0,0E0,0E0,1.6224436E-2,9.577377E-2,2.4364233E-2,0E0,0E0,8.590635E-2,0E0,0E0,0E0,0E0],"parents":[2147483647,0,0,2,2,3,3,4,4,5,5,9,9,10,10,11,11,14,14],"right_children":[2,-1,4,6,8,10,-1,-1,-1,12,14,16,-1,-1,18,-1,-1,-1,-1],"split_conditions":[1.5E0,8.3897096E-1,2.725E2,5.5E0,2.9E2,2.5E0,7.362122E-2,2.6940995E-1,4.734192E-2,2.4E2,2E2,1.5E0,2.9434205E-3,-6.350403E-2,2.375E2,1.3815308E-2,6.617508E-2,5.594101E-2,-3.2981873E-2],"split_indices":[1,0,0,2,0,2,0,0,0,0,0,2,0,0,0,0,0,0,0],"split_type":[0,0,0,0,0,0,0,0,0,0,0,0,0,0,0,0,0,0,0],"sum_hessian":[1.6E1,1E0,1.5E1,1.3E1,2E0,9E0,4E0,1E0,1E0,5E0,4E0,4E0,1E0,2E0,2E0,2E0,2E0,1E0,1E0],"tree_param":{"num_deleted":"0","num_feature":"9","num_nodes":"19","size_leaf_vector":"0"}},{"base_weights":[4.5649192E-1,2.3770905E0,1.8788636E-1,8.651801E-2,5.983098E-1,4.150979E-2,2.377116E-1,7.6332855E-1,1.341362E-1,1.0943254E-1,-2.2639683E-2,1.2798348E-1,8.338928E-3,2.8681437E-2,-1.652832E-1,3.684044E-2,1.7646535E-1,1.5850067E-1,-2.8982544E-2],"categories":[],"categories_nodes":[],"categories_segments":[],"categories_sizes":[],"default_left":[1,0,1,1,1,1,0,0,0,1,1,1,0,1,0,0,0,0,0],"id":27,"left_children":[1,-1,3,5,7,9,-1,-1,-1,11,13,15,-1,17,-1,-1,-1,-1,-1],"loss_changes":[8.323395E0,0E0,6.138985E-1,8.5402E-2,1.2740195E-1,5.4764025E-2,0E0,0E0,0E0,1.01850405E-2,5.5984937E-2,1.5592858E-2,0E0,4.950912E-2,0E0,0E0,0E0,0E0,0E0],"parents":[2147483647,0,0,2,2,3,3,4,4,5,5,9,9,10,10,11,11,13,13],"right_children":[2,-1,4,6,8,10,-1,-1,-1,12,14,16,-1,18,-1,-1,-1,-1,-1],"split_conditions":[1.5E0,7.1312714E-1,2.725E2,7.5E0,2.9E2,2.5E0,7.131348E-2,2.2899857E-1,4.024086E-2,2.4E2,3.5E0,1.5E0,2.5016787E-3,4.5E0,-4.9584962E-2,1.1052132E-2,5.2939605E-2,4.7550205E-2,-8.694763E-3],"split_indices":[1,0,0,2,0,2,0,0,0,0,1,2,0,2,0,0,0,0,0],"split_type":[0,0,0,0,0,0,0,0,0,0,0,0,0,0,0,0,0,0,0],"sum_hessian":[1.6E1,1E0,1.5E1,1.3E1,2E0,1.1E1,2E0,1E0,1E0,5E0,6E0,4E0,1E0,5E0,1E0,2E0,2E0,1E0,4E0],"tree_param":{"num_deleted":"0","num_feature":"9","num_nodes":"19","size_leaf_vector":"0"}},{"base_weights":[3.848051E-1,2.020523E0,1.5629005E-1,6.963948E-2,5.0856274E-1,1.6762543E-2,1.6146545E-1,6.488266E-1,1.1401749E-1,6.432247E-2,-1.1565145E-1,-1.2629509E-2,1.1301956E-1,7.682165E-2,-1.4049149E-1,1.377306E-1,7.0877075E-3],"categories":[],"categories_nodes":[],"categories_segments":[],"categories_sizes":[],"default_left":[1,0,1,1,1,1,0,0,0,1,0,1,1,0,0,0,0],"id":28,"left_children":[1,-1,3,5,7,9,-1,-1,-1,11,-1,13,15,-1,-1,-1,-1],"loss_changes":[6.038577E0,0E0,4.5297804E-1,6.527009E-2,9.20437E-2,7.041498E-2,0E0,0E0,0E0,3.140608E-2,0E0,5.6542393E-2,1.21122375E-2,0E0,0E0,0E0,0E0],"parents":[2147483647,0,0,2,2,3,3,4,4,5,5,9,9,11,11,12,12],"right_children":[2,-1,4,6,8,10,-1,-1,-1,12,-1,14,16,-1,-1,-1,-1],"split_conditions":[1.5E0,6.0615695E-1,2.725E2,5.5E0,2.9E2,4.5E0,4.8439637E-2,1.9464798E-1,3.4205247E-2,2.05E2,-3.4695435E-2,2.5E0,2.4E2,2.3046495E-2,-4.2147446E-2,4.131918E-2,2.1263123E-3],"split_indices":[1,0,0,2,0,2,0,0,0,0,0,2,0,0,0,0,0],"split_type":[0,0,0,0,0,0,0,0,0,0,0,0,0,0,0,0,0],"sum_hessian":[1.6E1,1E0,1.5E1,1.3E1,2E0,9E0,4E0,1E0,1E0,7E0,2E0,3E0,4E0,2E0,1E0,3E0,1E0],"tree_param":{"num_deleted":"0","num_feature":"9","num_nodes":"17","size_leaf_vector":"0"}},{"base_weights":[3.2072327E-1,1.7174377E0,1.2608874E-1,5.1469665E-2,4.322815E-1,2.0578543E-2,1.5787761E-1,5.5150604E-1,9.69162E-2,9.9155426E-2,-1.663102E-2,1.9172668E-1,4.508972E-2,-6.703186E-2,1.7689514E-1,-1.3815562E-1,3.782681E-2,6.804689E-2,-7.1746826E-2],"categories":[],"categories_nodes":[],"categories_segments":[],"categories_sizes":[],"default_left":[1,0,1,1,1,1,1,0,0,1,1,0,0,0,0,0,1,0,0],"id":29,"left_children":[1,-1,3,5,7,9,11,-1,-1,13,15,-1,-1,-1,-1,-1,17,-1,-1],"loss_changes":[4.404881E0,0E0,3.4331578E-1,4.2769965E-2,6.650144E-2,3.6734793E-2,2.8083995E-3,0E0,0E0,6.353502E-2,6.478768E-2,0E0,0E0,0E0,0E0,0E0,2.8061416E-2,0E0,0E0],"parents":[2147483647,0,0,2,2,3,3,4,4,5,5,6,6,9,9,10,10,16,16],"right_children":[2,-1,4,6,8,10,12,-1,-1,14,16,-1,-1,-1,-1,-1,18,-1,-1],"split_conditions":[1.5E0,5.152314E-1,2.725E2,7.5E0,2.9E2,1.7E2,1.875E2,1.6545182E-1,2.907486E-2,1.55E2,1.95E2,5.751801E-2,1.3526917E-2,-2.0109558E-2,5.3068545E-2,-4.144669E-2,2.575E2,2.0414067E-2,-2.152405E-2],"split_indices":[1,0,0,2,0,0,0,0,0,0,0,0,0,0,0,0,0,0,0],"split_type":[0,0,0,0,0,0,0,0,0,0,0,0,0,0,0,0,0,0,0],"sum_hessian":[1.6E1,1E0,1.5E1,1.3E1,2E0,1.1E1,2E0,1E0,1E0,3E0,8E0,1E0,1E0,1E0,2E0,2E0,6E0,5E0,1E0],"tree_param":{"num_deleted":"0","num_feature":"9","num_nodes":"19","size_leaf_vector":"0"}},{"base_weights":[2.6987144E-1,1.4598236E0,1.04260445E-1,4.041781E-2,3.6743927E-1,3.4934997E-3,1.0618286E-1,4.6878052E-1,8.237839E-2,3.3856392E-2,-7.863871E-2,4.277547E-2,1.3419597E-1,-2.1625519E-2,7.147064E-2,1.312561E-1,-6.7092896E-2,1.6296387E-1,3.8330078E-2,8.101654E-2,-8.2845055E-2,1.10448204E-1,8.669536E-3],"categories":[],"categories_nodes":[],"categories_segments":[],"categories_sizes":[],"default_left":[1,0,1,1,1,1,1,0,0,1,0,1,1,1,1,0,0,0,0,0,0,0,0],"id":30,"left_children":[1,-1,3,5,7,9,11,-1,-1,13,-1,15,17,19,21,-1,-1,-1,-1,-1,-1,-1,-1],"loss_changes":[3.1979737E0,0E0,2.539814E-1,3.362566E-2,4.804787E-2,2.7600138E-2,3.140889E-3,0E0,0E0,1.8240873E-2,0E0,3.7970018E-2,2.0271651E-3,3.1846616E-2,1.1281636E-2,0E0,0E0,0E0,0E0,0E0,0E0,0E0,0E0],"parents":[2147483647,0,0,2,2,3,3,4,4,5,5,6,6,9,9,11,11,12,12,13,13,14,14],"right_children":[2,-1,4,6,8,10,12,-1,-1,14,-1,16,18,20,22,-1,-1,-1,-1,-1,-1,-1,-1],"split_conditions":[1.5E0,4.379471E-1,2.725E2,5.5E0,2.9E2,4.5E0,1.775E2,1.4063416E-1,2.4713518E-2,2.05E2,-2.3591613E-2,1.675E2,1.875E2,1.775E2,2.25E2,3.9376833E-2,-2.012787E-2,4.8889164E-2,1.1499024E-2,2.4304964E-2,-2.4853518E-2,3.3134464E-2,2.6008608E-3],"split_indices":[1,0,0,2,0,2,0,0,0,0,0,0,0,0,0,0,0,0,0,0,0,0,0],"split_type":[0,0,0,0,0,0,0,0,0,0,0,0,0,0,0,0,0,0,0,0,0,0,0],"sum_hessian":[1.6E1,1E0,1.5E1,1.3E1,2E0,9E0,4E0,1E0,1E0,7E0,2E0,2E0,2E0,3E0,4E0,1E0,1E0,1E0,1E0,1E0,2E0,2E0,2E0],"tree_param":{"num_deleted":"0","num_feature":"9","num_nodes":"23","size_leaf_vector":"0"}},{"base_weights":[2.2976348E-1,1.2408447E0,8.901811E-2,3.480884E-2,3.12322E-1,3.6045075E-3,9.025574E-2,3.984604E-1,7.002258E-2,2.809763E-2,-6.291199E-2,3.6361694E-2,1.1406454E-1,-1.52750015E-2,5.717621E-2,1.11564636E-1,-5.7022095E-2,1.3851929E-1,3.2577515E-2,6.8862915E-2,-6.6275276E-2,8.835602E-2,6.9376626E-3],"categories":[],"categories_nodes":[],"categories_segments":[],"categories_sizes":[],"default_left":[1,0,1,1,1,1,1,0,0,1,0,1,1,1,1,0,0,0,0,0,0,0,0],"id":31,"left_children":[1,-1,3,5,7,9,11,-1,-1,13,-1,15,17,19,21,-1,-1,-1,-1,-1,-1,-1,-1],"loss_changes":[2.3087275E0,0E0,1.8281066E-1,2.389724E-2,3.4712642E-2,1.8059643E-2,2.2681803E-3,0E0,0E0,1.0963082E-2,0E0,2.7429856E-2,1.4656186E-3,2.1728138E-2,7.219158E-3,0E0,0E0,0E0,0E0,0E0,0E0,0E0,0E0],"parents":[2147483647,0,0,2,2,3,3,4,4,5,5,6,6,9,9,11,11,12,12,13,13,14,14],"right_children":[2,-1,4,6,8,10,12,-1,-1,14,-1,16,18,20,22,-1,-1,-1,-1,-1,-1,-1,-1],"split_conditions":[1.5E0,3.7225342E-1,2.725E2,5.5E0,2.9E2,4.5E0,1.775E2,1.1953812E-1,2.1006776E-2,2.05E2,-1.8873597E-2,1.675E2,1.875E2,1.775E2,2.25E2,3.3469394E-2,-1.710663E-2,4.155579E-2,9.773254E-3,2.0658875E-2,-1.9882584E-2,2.6506806E-2,2.081299E-3],"split_indices":[1,0,0,2,0,2,0,0,0,0,0,0,0,0,0,0,0,0,0,0,0,0,0],"split_type":[0,0,0,0,0,0,0,0,0,0,0,0,0,0,0,0,0,0,0,0,0,0,0],"sum_hessian":[1.6E1,1E0,1.5E1,1.3E1,2E0,9E0,4E0,1E0,1E0,7E0,2E0,2E0,2E0,3E0,4E0,1E0,1E0,1E0,1E0,1E0,2E0,2E0,2E0],"tree_param":{"num_deleted":"0","num_feature":"9","num_nodes":"23","size_leaf_vector":"0"}},{"base_weights":[1.9560006E-1,1.054718E0,7.598531E-2,2.9952867E-2,2.6547495E-1,1.0706425E-2,9.6954346E-2,3.386917E-1,5.952072E-2,5.8811188E-2,-1.1863072E-2,1.1773682E-1,2.7694702E-2,-3.5743713E-2,1.0224406E-1,-8.319092E-2,2.0400729E-2,4.706688E-2,-3.08431E-2],"categories":[],"categories_nodes":[],"categories_segments":[],"categories_sizes":[],"default_left":[1,0,1,1,1,1,1,0,0,1,1,0,0,0,0,0,1,0,0],"id":32,"left_children":[1,-1,3,5,7,9,11,-1,-1,13,15,-1,-1,-1,-1,-1,17,-1,-1],"loss_changes":[1.666831E0,0E0,1.31611E-1,1.7015524E-2,2.5078729E-2,1.3726085E-2,1.057474E-3,0E0,0E0,2.0081744E-2,2.2408921E-2,0E0,0E0,0E0,0E0,0E0,1.1017018E-2,0E0,0E0],"parents":[2147483647,0,0,2,2,3,3,4,4,5,5,6,6,9,9,10,10,16,16],"right_children":[2,-1,4,6,8,10,12,-1,-1,14,16,-1,-1,-1,-1,-1,18,-1,-1],"split_conditions":[1.5E0,3.1641543E-1,2.725E2,7.5E0,2.9E2,1.7E2,1.875E2,1.0160752E-1,1.7856218E-2,1.55E2,1.95E2,3.5321046E-2,8.308411E-3,-1.0723114E-2,3.0673219E-2,-2.4957277E-2,2.4E2,1.4120064E-2,-9.25293E-3],"split_indices":[1,0,0,2,0,0,0,0,0,0,0,0,0,0,0,0,0,0,0],"split_type":[0,0,0,0,0,0,0,0,0,0,0,0,0,0,0,0,0,0,0],"sum_hessian":[1.6E1,1E0,1.5E1,1.3E1,2E0,1.1E1,2E0,1E0,1E0,3E0,8E0,1E0,1E0,1E0,2E0,2E0,6E0,4E0,2E0],"tree_param":{"num_deleted":"0","num_feature":"9","num_nodes":"19","size_leaf_vector":"0"}},{"base_weights":[1.6512051E-1,8.965149E-1,6.337619E-2,2.4075372E-2,2.256546E-1,2.7656555E-4,6.685791E-2,2.8788757E-1,5.059433E-2,1.6722202E-2,-4.3670654E-2,2.9012045E-2,8.241781E-2,6.6978455E-2,-2.5612968E-5,7.949829E-2,-3.5980225E-2,1.000824E-1,2.3544312E-2,2.1252314E-2,-6.384659E-2],"categories":[],"categories_nodes":[],"categories_segments":[],"categories_sizes":[],"default_left":[1,0,1,1,1,1,1,0,0,1,0,1,1,0,1,0,0,0,0,0,0],"id":33,"left_children":[1,-1,3,5,7,9,11,-1,-1,13,-1,15,17,-1,19,-1,-1,-1,-1,-1,-1],"loss_changes":[1.2082412E0,0E0,9.661006E-2,1.4235935E-2,1.8118083E-2,7.95767E-3,5.53282E-4,0E0,0E0,6.735175E-3,0E0,1.2704014E-2,7.63556E-4,0E0,1.0862734E-2,0E0,0E0,0E0,0E0,0E0,0E0],"parents":[2147483647,0,0,2,2,3,3,4,4,5,5,6,6,9,9,11,11,12,12,14,14],"right_children":[2,-1,4,6,8,10,12,-1,-1,14,-1,16,18,-1,20,-1,-1,-1,-1,-1,-1],"split_conditions":[1.5E0,2.689545E-1,2.725E2,5.5E0,2.9E2,4.5E0,1.775E2,8.636627E-2,1.51782995E-2,3.5E0,-1.3101197E-2,1.675E2,1.875E2,2.0093538E-2,2.5E0,2.384949E-2,-1.0794068E-2,3.002472E-2,7.063294E-3,6.375694E-3,-1.9153977E-2],"split_indices":[1,0,0,2,0,2,0,0,0,1,0,0,0,0,2,0,0,0,0,0,0],"split_type":[0,0,0,0,0,0,0,0,0,0,0,0,0,0,0,0,0,0,0,0,0],"sum_hessian":[1.6E1,1E0,1.5E1,1.3E1,2E0,9E0,4E0,1E0,1E0,7E0,2E0,2E0,2E0,1E0,6E0,1E0,1E0,1E0,1E0,5E0,1E0],"tree_param":{"num_deleted":"0","num_feature":"9","num_nodes":"21","size_leaf_vector":"0"}},{"base_weights":[1.3998963E-1,7.620392E-1,5.3484082E-2,2.0022938E-2,1.9180806E-1,-3.8433075E-4,5.6832887E-2,2.447052E-1,4.3006897E-2,1.2619257E-2,-3.4932453E-2,2.466329E-2,7.005819E-2,5.6930542E-2,-1.8438612E-3,6.757355E-2,-3.0578613E-2,8.506775E-2,2.0019531E-2,1.5938124E-2,-5.4267883E-2],"categories":[],"categories_nodes":[],"categories_segments":[],"categories_sizes":[],"default_left":[1,0,1,1,1,1,1,0,0,1,0,1,1,0,1,0,0,0,0,0,0],"id":34,"left_children":[1,-1,3,5,7,9,11,-1,-1,13,-1,15,17,-1,19,-1,-1,-1,-1,-1,-1],"loss_changes":[8.740256E-1,0E0,7.02151E-2,1.0538509E-2,1.3089456E-2,4.933317E-3,3.993977E-4,0E0,0E0,5.2320063E-3,0E0,9.177638E-3,5.501583E-4,0E0,7.39035E-3,0E0,0E0,0E0,0E0,0E0,0E0],"parents":[2147483647,0,0,2,2,3,3,4,4,5,5,6,6,9,9,11,11,12,12,14,14],"right_children":[2,-1,4,6,8,10,12,-1,-1,14,-1,16,18,-1,20,-1,-1,-1,-1,-1,-1],"split_conditions":[1.5E0,2.2861177E-1,2.725E2,5.5E0,2.9E2,4.5E0,1.775E2,7.341156E-2,1.290207E-2,3.5E0,-1.0479736E-2,1.675E2,1.875E2,1.7079163E-2,2.5E0,2.0272065E-2,-9.173584E-3,2.5520327E-2,6.0058595E-3,4.781437E-3,-1.6280366E-2],"split_indices":[1,0,0,2,0,2,0,0,0,1,0,0,0,0,2,0,0,0,0,0,0],"split_type":[0,0,0,0,0,0,0,0,0,0,0,0,0,0,0,0,0,0,0,0,0],"sum_hessian":[1.6E1,1E0,1.5E1,1.3E1,2E0,9E0,4E0,1E0,1E0,7E0,2E0,2E0,2E0,1E0,6E0,1E0,1E0,1E0,1E0,5E0,1E0],"tree_param":{"num_deleted":"0","num_feature":"9","num_nodes":"21","size_leaf_vector":"0"}},{"base_weights":[1.1873851E-1,6.477356E-1,4.519272E-2,1.6712189E-2,1.6303761E-1,-7.575989E-4,4.8309326E-2,2.0800018E-1,3.6556244E-2,9.531975E-3,-2.794393E-2,2.0965576E-2,5.954997E-2,4.839325E-2,-2.9329571E-3,5.7434082E-2,-2.5985718E-2,7.23114E-2,1.701355E-2,1.195399E-2,-4.612732E-2],"categories":[],"categories_nodes":[],"categories_segments":[],"categories_sizes":[],"default_left":[1,0,1,1,1,1,1,0,0,1,0,1,1,0,1,0,0,0,0,0,0],"id":35,"left_children":[1,-1,3,5,7,9,11,-1,-1,13,-1,15,17,-1,19,-1,-1,-1,-1,-1,-1],"loss_changes":[6.321208E-1,0E0,5.0975848E-2,7.764533E-3,9.457074E-3,3.0637183E-3,2.8830674E-4,0E0,0E0,4.0171603E-3,0E0,6.629196E-3,3.982028E-4,0E0,5.052631E-3,0E0,0E0,0E0,0E0,0E0,0E0],"parents":[2147483647,0,0,2,2,3,3,4,4,5,5,6,6,9,9,11,11,12,12,14,14],"right_children":[2,-1,4,6,8,10,12,-1,-1,14,-1,16,18,-1,20,-1,-1,-1,-1,-1,-1],"split_conditions":[1.5E0,1.943207E-1,2.725E2,5.5E0,2.9E2,4.5E0,1.775E2,6.2400058E-2,1.0966874E-2,3.5E0,-8.383179E-3,1.675E2,1.875E2,1.4517975E-2,2.5E0,1.7230226E-2,-7.7957157E-3,2.1693422E-2,5.104065E-3,3.586197E-3,-1.3838196E-2],"split_indices":[1,0,0,2,0,2,0,0,0,1,0,0,0,0,2,0,0,0,0,0,0],"split_type":[0,0,0,0,0,0,0,0,0,0,0,0,0,0,0,0,0,0,0,0,0],"sum_hessian":[1.6E1,1E0,1.5E1,1.3E1,2E0,9E0,4E0,1E0,1E0,7E0,2E0,2E0,2E0,1E0,6E0,1E0,1E0,1E0,1E0,5E0,1E0],"tree_param":{"num_deleted":"0","num_feature":"9","num_nodes":"21","size_leaf_vector":"0"}},{"base_weights":[1.0075154E-1,5.505676E-1,3.8227558E-2,1.3991765E-2,1.385854E-1,-6.5345764E-3,3.5451617E-2,1.7680359E-1,3.1074524E-2,-3.7895203E-2,1.0234833E-2,-1.43966675E-2,4.6159107E-2,3.9131165E-2,-1.3996124E-2,5.587578E-2,1.7817179E-2,4.119873E-4,-1.8936157E-2,6.485748E-2,1.4465332E-2,4.8820496E-2,-2.2094727E-2],"categories":[],"categories_nodes":[],"categories_segments":[],"categories_sizes":[],"default_left":[1,0,1,1,1,1,1,0,0,0,1,0,1,0,1,1,1,0,0,0,0,0,0],"id":36,"left_children":[1,-1,3,5,7,9,11,-1,-1,-1,13,-1,15,-1,17,19,21,-1,-1,-1,-1,-1,-1],"loss_changes":[4.5706612E-1,0E0,3.6976986E-2,6.398553E-3,6.8325214E-3,4.595045E-3,4.400787E-3,0E0,0E0,0E0,4.7487994E-3,0E0,6.567873E-4,0E0,2.9250764E-4,5.495604E-4,4.79088E-3,0E0,0E0,0E0,0E0,0E0,0E0],"parents":[2147483647,0,0,2,2,3,3,4,4,5,5,6,6,10,10,12,12,14,14,15,15,16,16],"right_children":[2,-1,4,6,8,10,12,-1,-1,-1,14,-1,16,-1,18,20,22,-1,-1,-1,-1,-1,-1],"split_conditions":[1.5E0,1.651703E-1,2.725E2,5E-1,2.9E2,2.05E2,1.55E2,5.304108E-2,9.322357E-3,-1.1368562E-2,2.25E2,-4.3190005E-3,5E-1,1.173935E-2,2.4E2,1.875E2,1.675E2,1.235962E-4,-5.6808474E-3,1.9457245E-2,4.3396E-3,1.4646149E-2,-6.6284183E-3],"split_indices":[1,0,0,3,0,0,0,0,0,0,0,0,6,0,0,0,0,0,0,0,0,0,0],"split_type":[0,0,0,0,0,0,0,0,0,0,0,0,0,0,0,0,0,0,0,0,0,0,0],"sum_hessian":[1.6E1,1E0,1.5E1,1.3E1,2E0,7E0,6E0,1E0,1E0,2E0,5E0,1E0,5E0,2E0,3E0,3E0,2E0,1E0,2E0,2E0,1E0,1E0,1E0],"tree_param":{"num_deleted":"0","num_feature":"9","num_nodes":"23","size_leaf_vector":"0"}},{"base_weights":[8.522202E-2,4.6798706E-1,3.2050014E-2,1.1386191E-2,1.1779785E-1,-1.4070511E-3,3.4695435E-2,1.5028381E-1,2.6412964E-2,5.3765774E-3,-1.902771E-2,1.5141805E-2,4.2683918E-2,3.527069E-2,-3.9326805E-3,4.1496277E-2,-1.878357E-2,5.1727295E-2,1.2298584E-2,6.586393E-3,-3.352356E-2],"categories":[],"categories_nodes":[],"categories_segments":[],"categories_sizes":[],"default_left":[1,0,1,1,1,1,1,0,0,1,0,1,1,0,1,0,0,0,0,0,0],"id":37,"left_children":[1,-1,3,5,7,9,11,-1,-1,13,-1,15,17,-1,19,-1,-1,-1,-1,-1,-1],"loss_changes":[3.3099157E-1,0E0,2.7008783E-2,4.2236294E-3,4.936736E-3,1.297624E-3,1.347079E-4,0E0,0E0,2.3650443E-3,0E0,3.4617041E-3,1.8818537E-4,0E0,2.3996797E-3,0E0,0E0,0E0,0E0,0E0,0E0],"parents":[2147483647,0,0,2,2,3,3,4,4,5,5,6,6,9,9,11,11,12,12,14,14],"right_children":[2,-1,4,6,8,10,12,-1,-1,14,-1,16,18,-1,20,-1,-1,-1,-1,-1,-1],"split_conditions":[1.5E0,1.4039612E-1,2.725E2,5.5E0,2.9E2,4.5E0,1.775E2,4.5085147E-2,7.92389E-3,3.5E0,-5.708313E-3,1.675E2,1.875E2,1.0581207E-2,2.5E0,1.2448884E-2,-5.635071E-3,1.5518189E-2,3.6895752E-3,1.975918E-3,-1.0057068E-2],"split_indices":[1,0,0,2,0,2,0,0,0,1,0,0,0,0,2,0,0,0,0,0,0],"split_type":[0,0,0,0,0,0,0,0,0,0,0,0,0,0,0,0,0,0,0,0,0],"sum_hessian":[1.6E1,1E0,1.5E1,1.3E1,2E0,9E0,4E0,1E0,1E0,7E0,2E0,2E0,2E0,1E0,6E0,1E0,1E0,1E0,1E0,5E0,1E0],"tree_param":{"num_deleted":"0","num_feature":"9","num_nodes":"21","size_leaf_vector":"0"}},{"base_weights":[7.237457E-2,3.9779663E-1,2.71734E-2,9.599822E-3,1.0012563E-1,-5.562067E-3,2.5556292E-2,1.2773895E-1,2.2449493E-2,-2.7623495E-2,6.395658E-3,-9.384155E-3,3.2943726E-2,2.7122498E-2,-1.0748386E-2,3.976059E-2,1.2873332E-2,-6.380081E-4,-1.3905843E-2,4.604594E-2,1.04522705E-2,3.527069E-2,-1.5960693E-2],"categories":[],"categories_nodes":[],"categories_segments":[],"categories_sizes":[],"default_left":[1,0,1,1,1,1,1,0,0,0,1,0,1,0,1,1,1,0,0,0,0,0,0],"id":38,"left_children":[1,-1,3,5,7,9,11,-1,-1,-1,13,-1,15,-1,17,19,21,-1,-1,-1,-1,-1,-1],"loss_changes":[2.392513E-1,0E0,1.9551318E-2,3.5291694E-3,3.5670158E-3,2.2871061E-3,2.1159905E-3,0E0,0E0,0E0,2.4235744E-3,0E0,3.0905148E-4,0E0,1.1882026E-4,2.555675E-4,2.5003627E-3,0E0,0E0,0E0,0E0,0E0,0E0],"parents":[2147483647,0,0,2,2,3,3,4,4,5,5,6,6,10,10,12,12,14,14,15,15,16,16],"right_children":[2,-1,4,6,8,10,12,-1,-1,-1,14,-1,16,-1,18,20,22,-1,-1,-1,-1,-1,-1],"split_conditions":[1.5E0,1.19339E-1,2.725E2,5E-1,2.9E2,2.05E2,1.55E2,3.832169E-2,6.7348485E-3,-8.287049E-3,2.25E2,-2.8152466E-3,5E-1,8.136749E-3,2.4E2,1.875E2,1.675E2,-1.9140245E-4,-4.171753E-3,1.38137825E-2,3.1356814E-3,1.0581207E-2,-4.7882083E-3],"split_indices":[1,0,0,3,0,0,0,0,0,0,0,0,6,0,0,0,0,0,0,0,0,0,0],"split_type":[0,0,0,0,0,0,0,0,0,0,0,0,0,0,0,0,0,0,0,0,0,0,0],"sum_hessian":[1.6E1,1E0,1.5E1,1.3E1,2E0,7E0,6E0,1E0,1E0,2E0,5E0,1E0,5E0,2E0,3E0,3E0,2E0,1E0,2E0,2E0,1E0,1E0,1E0],"tree_param":{"num_deleted":"0","num_feature":"9","num_nodes":"23","size_leaf_vector":"0"}},{"base_weights":[6.123655E-2,3.381195E-1,2.2798896E-2,7.818358E-3,8.510844E-2,-4.4596195E-3,2.0733425E-2,1.0858154E-1,1.9081116E-2,-2.2099813E-2,5.103747E-3,-7.980347E-3,2.6849112E-2,2.1697998E-2,-8.617878E-3,3.2064438E-2,1.0945638E-2,2.5917053E-2,6.629944E-3,-5.426407E-4,-1.1128743E-2,3.6832172E-2,8.880615E-3,2.998352E-2,-1.35650635E-2],"categories":[],"categories_nodes":[],"categories_segments":[],"categories_sizes":[],"default_left":[1,0,1,1,1,1,1,0,0,0,1,0,1,1,1,1,1,0,0,0,0,0,0,0,0],"id":39,"left_children":[1,-1,3,5,7,9,11,-1,-1,-1,13,-1,15,17,19,21,23,-1,-1,-1,-1,-1,-1,-1,-1],"loss_changes":[1.7321768E-1,0E0,1.4269479E-2,2.3124558E-3,2.5777426E-3,1.4623889E-3,1.4434964E-3,0E0,0E0,0E0,1.5531912E-3,0E0,1.4668517E-4,1.8890249E-5,7.5064425E-5,1.1504488E-4,1.8066239E-3,0E0,0E0,0E0,0E0,0E0,0E0,0E0,0E0],"parents":[2147483647,0,0,2,2,3,3,4,4,5,5,6,6,10,10,12,12,13,13,14,14,15,15,16,16],"right_children":[2,-1,4,6,8,10,12,-1,-1,-1,14,-1,16,18,20,22,24,-1,-1,-1,-1,-1,-1,-1,-1],"split_conditions":[1.5E0,1.01435855E-1,2.725E2,5E-1,2.9E2,2.05E2,1.55E2,3.2574464E-2,5.724335E-3,-6.6299443E-3,2.25E2,-2.3941041E-3,5E-1,2.15E2,2.4E2,1.875E2,1.675E2,7.7751162E-3,1.9889832E-3,-1.6279222E-4,-3.338623E-3,1.10496525E-2,2.6641847E-3,8.995056E-3,-4.069519E-3],"split_indices":[1,0,0,3,0,0,0,0,0,0,0,0,6,0,0,0,0,0,0,0,0,0,0,0,0],"split_type":[0,0,0,0,0,0,0,0,0,0,0,0,0,0,0,0,0,0,0,0,0,0,0,0,0],"sum_hessian":[1.6E1,1E0,1.5E1,1.3E1,2E0,7E0,6E0,1E0,1E0,2E0,5E0,1E0,5E0,2E0,3E0,3E0,2E0,1E0,1E0,1E0,2E0,2E0,1E0,1E0,1E0],"tree_param":{"num_deleted":"0","num_feature":"9","num_nodes":"25","size_leaf_vector":"0"}},{"base_weights":[5.2018557E-2,2.873993E-1,1.9344807E-2,6.606511E-3,7.234192E-2,-1.3557434E-3,2.1209717E-2,9.2292786E-2,1.6220093E-2,-8.250427E-3,4.6157837E-3,9.2976885E-3,2.605184E-2,4.796346E-3,-1.8547058E-2,1.8440247E-2,-6.9065094E-3,2.5482178E-2,-1.15356445E-2,3.152466E-2,7.5531006E-3,1.2676239E-2,-5.48172E-3,2.2026062E-2,5.634308E-3,-4.6157837E-4,-8.90096E-3],"categories":[],"categories_nodes":[],"categories_segments":[],"categories_sizes":[],"default_left":[1,0,1,1,1,1,1,0,0,1,1,1,1,1,0,1,1,0,0,0,0,0,0,0,0,0,0],"id":40,"left_children":[1,-1,3,5,7,9,11,-1,-1,13,15,17,19,21,-1,23,25,-1,-1,-1,-1,-1,-1,-1,-1,-1,-1],"loss_changes":[1.2518343E-1,0E0,1.0323559E-2,1.656597E-3,1.8620398E-3,4.4980008E-4,4.617544E-5,0E0,0E0,7.606471E-4,1.0830947E-3,1.3054839E-3,6.561191E-5,3.1245776E-4,0E0,1.3657613E-5,4.7307898E-5,0E0,0E0,0E0,0E0,0E0,0E0,0E0,0E0,0E0,0E0],"parents":[2147483647,0,0,2,2,3,3,4,4,5,5,6,6,9,9,10,10,11,11,12,12,13,13,15,15,16,16],"right_children":[2,-1,4,6,8,10,12,-1,-1,14,16,18,20,22,-1,24,26,-1,-1,-1,-1,-1,-1,-1,-1,-1,-1],"split_conditions":[1.5E0,8.621979E-2,2.725E2,5.5E0,2.9E2,2.05E2,1.775E2,2.7687836E-2,4.866028E-3,2.5E0,2.25E2,1.675E2,1.875E2,1.825E2,-5.564118E-3,2.15E2,2.4E2,7.644654E-3,-3.4606934E-3,9.457398E-3,2.2659302E-3,3.8028718E-3,-1.644516E-3,6.607819E-3,1.6902924E-3,-1.3847352E-4,-2.670288E-3],"split_indices":[1,0,0,2,0,0,0,0,0,2,0,0,0,0,0,0,0,0,0,0,0,0,0,0,0,0,0],"split_type":[0,0,0,0,0,0,0,0,0,0,0,0,0,0,0,0,0,0,0,0,0,0,0,0,0,0,0],"sum_hessian":[1.6E1,1E0,1.5E1,1.3E1,2E0,9E0,4E0,1E0,1E0,4E0,5E0,2E0,2E0,2E0,2E0,2E0,3E0,1E0,1E0,1E0,1E0,1E0,1E0,1E0,1E0,1E0,2E0],"tree_param":{"num_deleted":"0","num_feature":"9","num_nodes":"27","size_leaf_vector":"0"}},{"base_weights":[4.4457715E-2,2.4429321E-1,1.6699672E-2,5.909375E-3,6.1487835E-2,-7.40242E-4,1.8026734E-2,7.8445435E-2,1.3786316E-2,-5.510012E-3,5.1315306E-3,7.898967E-3,2.214559E-2,2.8624535E-3,-1.4836629E-2,1.5673319E-2,-7.120768E-3,2.1659851E-2,-9.811401E-3,2.6794434E-2,6.42395E-3,1.077652E-2,-3.3677418E-3,-3.9978027E-3,-1.8257141E-2,1.8722534E-2,4.787445E-3],"categories":[],"categories_nodes":[],"categories_segments":[],"categories_sizes":[],"default_left":[1,0,1,1,1,1,1,0,0,1,1,1,1,1,1,1,0,0,0,0,0,0,0,0,0,0,0],"id":41,"left_children":[1,-1,3,5,7,9,11,-1,-1,13,15,17,19,21,23,25,-1,-1,-1,-1,-1,-1,-1,-1,-1,-1,-1],"loss_changes":[9.022011E-2,0E0,7.3690866E-3,1.1414052E-3,1.3452359E-3,3.0834487E-4,3.364694E-5,0E0,0E0,5.1098986E-4,7.5741176E-4,9.436445E-4,4.7136215E-5,2.3351726E-4,3.8234575E-5,9.946991E-6,0E0,0E0,0E0,0E0,0E0,0E0,0E0,0E0,0E0,0E0,0E0],"parents":[2147483647,0,0,2,2,3,3,4,4,5,5,6,6,9,9,10,10,11,11,12,12,13,13,14,14,15,15],"right_children":[2,-1,4,6,8,10,12,-1,-1,14,16,18,20,22,24,26,-1,-1,-1,-1,-1,-1,-1,-1,-1,-1,-1],"split_conditions":[1.5E0,7.3287964E-2,2.725E2,5.5E0,2.9E2,5E-1,1.775E2,2.3533631E-2,4.135895E-3,2.5E0,2.35E2,1.675E2,1.875E2,1.825E2,1.7E2,2.15E2,-2.1362305E-3,6.4979554E-3,-2.9434205E-3,8.038331E-3,1.9271851E-3,3.2329562E-3,-1.0103226E-3,-1.1993409E-3,-5.4771425E-3,5.6167603E-3,1.4362335E-3],"split_indices":[1,0,0,2,0,8,0,0,0,2,0,0,0,0,0,0,0,0,0,0,0,0,0,0,0,0,0],"split_type":[0,0,0,0,0,0,0,0,0,0,0,0,0,0,0,0,0,0,0,0,0,0,0,0,0,0,0],"sum_hessian":[1.6E1,1E0,1.5E1,1.3E1,2E0,9E0,4E0,1E0,1E0,5E0,4E0,2E0,2E0,3E0,2E0,2E0,2E0,1E0,1E0,1E0,1E0,1E0,2E0,1E0,1E0,1E0,1E0],"tree_param":{"num_deleted":"0","num_feature":"9","num_nodes":"27","size_leaf_vector":"0"}},{"base_weights":[3.7881628E-2,2.076416E-1,1.4294028E-2,5.136081E-3,5.2266438E-2,-4.7092437E-4,1.5322876E-2,6.668091E-2,1.171875E-2,-5.5633546E-3,3.8512547E-3,6.708781E-3,1.8829346E-2,3.8426716E-3,-1.3114929E-2,1.3323466E-2,-4.2157173E-3,1.8409729E-2,-8.346558E-3,2.2781372E-2,5.4626465E-3,-3.3950806E-3,9.159088E-3,1.5914917E-2,4.070282E-3,-7.5848895E-4,-7.293701E-3],"categories":[],"categories_nodes":[],"categories_segments":[],"categories_sizes":[],"default_left":[1,0,1,1,1,1,1,0,0,1,1,1,1,1,0,1,1,0,0,0,0,0,0,0,0,0,0],"id":42,"left_children":[1,-1,3,5,7,9,11,-1,-1,13,15,17,19,21,-1,23,25,-1,-1,-1,-1,-1,-1,-1,-1,-1,-1],"loss_changes":[6.510387E-2,0E0,5.295544E-3,8.068597E-4,9.720037E-4,2.4152985E-4,2.4703448E-5,0E0,0E0,4.055479E-4,5.146403E-4,6.821431E-4,3.403006E-5,1.4653256E-4,1.390581E-7,7.1593095E-6,3.703298E-5,0E0,0E0,0E0,0E0,0E0,0E0,0E0,0E0,0E0,0E0],"parents":[2147483647,0,0,2,2,3,3,4,4,5,5,6,6,9,9,10,10,11,11,12,12,13,13,15,15,16,16],"right_children":[2,-1,4,6,8,10,12,-1,-1,14,16,18,20,22,-1,24,26,-1,-1,-1,-1,-1,-1,-1,-1,-1,-1],"split_conditions":[1.5E0,6.2292483E-2,2.725E2,5.5E0,2.9E2,2.05E2,1.775E2,2.0004272E-2,3.5156251E-3,1.775E2,2.25E2,1.675E2,1.875E2,1.575E2,-3.934479E-3,2.15E2,2.575E2,5.522919E-3,-2.5039674E-3,6.834412E-3,1.638794E-3,-1.0185242E-3,2.7477266E-3,4.7744755E-3,1.2210846E-3,-2.275467E-4,-2.1881105E-3],"split_indices":[1,0,0,2,0,0,0,0,0,0,0,0,0,0,0,0,0,0,0,0,0,0,0,0,0,0,0],"split_type":[0,0,0,0,0,0,0,0,0,0,0,0,0,0,0,0,0,0,0,0,0,0,0,0,0,0,0],"sum_hessian":[1.6E1,1E0,1.5E1,1.3E1,2E0,9E0,4E0,1E0,1E0,4E0,5E0,2E0,2E0,2E0,2E0,2E0,3E0,1E0,1E0,1E0,1E0,1E0,1E0,1E0,1E0,2E0,1E0],"tree_param":{"num_deleted":"0","num_feature":"9","num_nodes":"27","size_leaf_vector":"0"}},{"base_weights":[3.2321256E-2,1.7649841E-1,1.2279034E-2,4.5133317E-3,4.4425964E-2,-1.9226075E-4,1.3021851E-2,5.6678772E-2,9.960175E-3,-4.334259E-3,3.2914479E-3,5.7017007E-3,1.6001383E-2,3.7320454E-3,-1.0955811E-2,1.1324565E-2,-3.5562515E-3,1.5647888E-2,-7.095337E-3,1.9363403E-2,4.638672E-3,7.785797E-3,-2.1877289E-3,-2.8839111E-3,-1.3549805E-2,1.35269165E-2,3.4599304E-3,-6.0653687E-4,-6.2026978E-3],"categories":[],"categories_nodes":[],"categories_segments":[],"categories_sizes":[],"default_left":[1,0,1,1,1,1,1,0,0,1,1,1,1,1,1,1,1,0,0,0,0,0,0,0,0,0,0,0,0],"id":43,"left_children":[1,-1,3,5,7,9,11,-1,-1,13,15,17,19,21,23,25,27,-1,-1,-1,-1,-1,-1,-1,-1,-1,-1,-1,-1],"loss_changes":[4.6956494E-2,0E0,3.7937863E-3,5.6303025E-4,7.023779E-4,1.5856113E-4,1.7818063E-5,0E0,0E0,3.0794484E-4,3.703232E-4,4.9287226E-4,2.4784531E-5,8.9025096E-5,2.3738947E-5,5.1599054E-6,2.746288E-5,0E0,0E0,0E0,0E0,0E0,0E0,0E0,0E0,0E0,0E0,0E0,0E0],"parents":[2147483647,0,0,2,2,3,3,4,4,5,5,6,6,9,9,10,10,11,11,12,12,13,13,14,14,15,15,16,16],"right_children":[2,-1,4,6,8,10,12,-1,-1,14,16,18,20,22,24,26,28,-1,-1,-1,-1,-1,-1,-1,-1,-1,-1,-1,-1],"split_conditions":[1.5E0,5.2949525E-2,2.725E2,5.5E0,2.9E2,2.05E2,1.775E2,1.7003633E-2,2.9880526E-3,2.5E0,2.25E2,1.675E2,1.875E2,1.825E2,1.7E2,2.15E2,2.575E2,4.694367E-3,-2.128601E-3,5.809021E-3,1.3916016E-3,2.3357393E-3,-6.563187E-4,-8.6517335E-4,-4.064942E-3,4.058075E-3,1.0379791E-3,-1.8196106E-4,-1.8608094E-3],"split_indices":[1,0,0,2,0,0,0,0,0,2,0,0,0,0,0,0,0,0,0,0,0,0,0,0,0,0,0,0,0],"split_type":[0,0,0,0,0,0,0,0,0,0,0,0,0,0,0,0,0,0,0,0,0,0,0,0,0,0,0,0,0],"sum_hessian":[1.6E1,1E0,1.5E1,1.3E1,2E0,9E0,4E0,1E0,1E0,4E0,5E0,2E0,2E0,2E0,2E0,2E0,3E0,1E0,1E0,1E0,1E0,1E0,1E0,1E0,1E0,1E0,1E0,2E0,1E0],"tree_param":{"num_deleted":"0","num_feature":"9","num_nodes":"29","size_leaf_vector":"0"}},{"base_weights":[2.7479172E-2,1.5002441E-1,1.0443568E-2,3.8434437E-3,3.776296E-2,-1.5354156E-4,1.1068726E-2,4.8179626E-2,8.464813E-3,-3.6827088E-3,2.8130214E-3,4.8472085E-3,1.3600667E-2,3.1725566E-3,-9.310405E-3,9.625752E-3,-2.9997826E-3,1.3298035E-2,-6.0272217E-3,1.6464233E-2,3.9367676E-3,6.6184998E-3,-1.8596649E-3,-2.4490356E-3,-1.1516571E-2,1.1497498E-2,2.9411316E-3,-4.8510233E-4,-5.2719116E-3],"categories":[],"categories_nodes":[],"categories_segments":[],"categories_sizes":[],"default_left":[1,0,1,1,1,1,1,0,0,1,1,1,1,1,1,1,1,0,0,0,0,0,0,0,0,0,0,0,0],"id":44,"left_children":[1,-1,3,5,7,9,11,-1,-1,13,15,17,19,21,23,25,27,-1,-1,-1,-1,-1,-1,-1,-1,-1,-1,-1,-1],"loss_changes":[3.3922955E-2,0E0,2.7398425E-3,4.060103E-4,5.0773565E-4,1.150545E-4,1.2837292E-5,0E0,0E0,2.2243452E-4,2.664816E-4,3.5584395E-4,1.8203806E-5,6.433044E-5,1.7207465E-5,3.7200516E-6,2.0297295E-5,0E0,0E0,0E0,0E0,0E0,0E0,0E0,0E0,0E0,0E0,0E0,0E0],"parents":[2147483647,0,0,2,2,3,3,4,4,5,5,6,6,9,9,10,10,11,11,12,12,13,13,14,14,15,15,16,16],"right_children":[2,-1,4,6,8,10,12,-1,-1,14,16,18,20,22,24,26,28,-1,-1,-1,-1,-1,-1,-1,-1,-1,-1,-1,-1],"split_conditions":[1.5E0,4.5007326E-2,2.725E2,5.5E0,2.9E2,2.05E2,1.775E2,1.4453889E-2,2.539444E-3,2.5E0,2.25E2,1.675E2,1.875E2,1.825E2,1.7E2,2.15E2,2.575E2,3.9894106E-3,-1.8081666E-3,4.93927E-3,1.1810303E-3,1.98555E-3,-5.578995E-4,-7.347107E-4,-3.4549714E-3,3.4492493E-3,8.823395E-4,-1.455307E-4,-1.5815735E-3],"split_indices":[1,0,0,2,0,0,0,0,0,2,0,0,0,0,0,0,0,0,0,0,0,0,0,0,0,0,0,0,0],"split_type":[0,0,0,0,0,0,0,0,0,0,0,0,0,0,0,0,0,0,0,0,0,0,0,0,0,0,0,0,0],"sum_hessian":[1.6E1,1E0,1.5E1,1.3E1,2E0,9E0,4E0,1E0,1E0,4E0,5E0,2E0,2E0,2E0,2E0,2E0,3E0,1E0,1E0,1E0,1E0,1E0,1E0,1E0,1E0,1E0,1E0,2E0,1E0],"tree_param":{"num_deleted":"0","num_feature":"9","num_nodes":"29","size_leaf_vector":"0"}},{"base_weights":[2.3361094E-2,1.275177E-1,8.88145E-3,3.2717842E-3,3.2099407E-2,-1.2226104E-4,9.405518E-3,4.095459E-2,7.194519E-3,-3.1303405E-3,2.4048488E-3,4.119873E-3,1.1555989E-2,2.696991E-3,-7.914226E-3,8.181254E-3,-2.5286674E-3,1.1306763E-2,-5.126953E-3,1.399231E-2,3.3416748E-3,5.6266785E-3,-1.581192E-3,-2.0828247E-3,-9.788513E-3,9.773254E-3,2.4986267E-3,-3.859202E-4,-4.4784546E-3],"categories":[],"categories_nodes":[],"categories_segments":[],"categories_sizes":[],"default_left":[1,0,1,1,1,1,1,0,0,1,1,1,1,1,1,1,1,0,0,0,0,0,0,0,0,0,0,0,0],"id":45,"left_children":[1,-1,3,5,7,9,11,-1,-1,13,15,17,19,21,23,25,27,-1,-1,-1,-1,-1,-1,-1,-1,-1,-1,-1,-1],"loss_changes":[2.450602E-2,0E0,1.978897E-3,2.9260427E-4,3.6696345E-4,8.354546E-5,9.223964E-6,0E0,0E0,1.60731E-4,1.916756E-4,2.57337E-4,1.328034E-5,4.6498077E-5,1.2401419E-5,2.7205242E-6,1.4983278E-5,0E0,0E0,0E0,0E0,0E0,0E0,0E0,0E0,0E0,0E0,0E0,0E0],"parents":[2147483647,0,0,2,2,3,3,4,4,5,5,6,6,9,9,10,10,11,11,12,12,13,13,14,14,15,15,16,16],"right_children":[2,-1,4,6,8,10,12,-1,-1,14,16,18,20,22,24,26,28,-1,-1,-1,-1,-1,-1,-1,-1,-1,-1,-1,-1],"split_conditions":[1.5E0,3.825531E-2,2.725E2,5.5E0,2.9E2,2.05E2,1.775E2,1.2286377E-2,2.158356E-3,2.5E0,2.25E2,1.675E2,1.875E2,1.825E2,1.7E2,2.15E2,2.575E2,3.3920289E-3,-1.538086E-3,4.197693E-3,1.0025025E-3,1.6880037E-3,-4.7435763E-4,-6.248474E-4,-2.9365541E-3,2.9319765E-3,7.495881E-4,-1.1577606E-4,-1.3435364E-3],"split_indices":[1,0,0,2,0,0,0,0,0,2,0,0,0,0,0,0,0,0,0,0,0,0,0,0,0,0,0,0,0],"split_type":[0,0,0,0,0,0,0,0,0,0,0,0,0,0,0,0,0,0,0,0,0,0,0,0,0,0,0,0,0],"sum_hessian":[1.6E1,1E0,1.5E1,1.3E1,2E0,9E0,4E0,1E0,1E0,4E0,5E0,2E0,2E0,2E0,2E0,2E0,3E0,1E0,1E0,1E0,1E0,1E0,1E0,1E0,1E0,1E0,1E0,2E0,1E0],"tree_param":{"num_deleted":"0","num_feature":"9","num_nodes":"29","size_leaf_vector":"0"}},{"base_weights":[1.9858865E-2,1.0838318E-1,7.552147E-3,2.784184E-3,2.7285257E-2,-9.689331E-5,7.989502E-3,3.4812927E-2,6.1149597E-3,-2.66037E-3,2.055486E-3,3.4993489E-3,9.816487E-3,2.292633E-3,-6.726583E-3,6.955465E-3,-2.1333694E-3,9.613037E-3,-4.3640137E-3,1.1886597E-2,2.8381348E-3,4.7836304E-3,-1.3446808E-3,-1.7700195E-3,-8.319855E-3,8.308411E-3,2.1247864E-3,4.4822693E-4,-3.1433105E-3],"categories":[],"categories_nodes":[],"categories_segments":[],"categories_sizes":[],"default_left":[1,0,1,1,1,1,1,0,0,1,1,1,1,1,1,1,1,0,0,0,0,0,0,0,0,0,0,0,0],"id":46,"left_children":[1,-1,3,5,7,9,11,-1,-1,13,15,17,19,21,23,25,27,-1,-1,-1,-1,-1,-1,-1,-1,-1,-1,-1,-1],"loss_changes":[1.7702017E-2,0E0,1.4294207E-3,2.1073106E-4,2.6520924E-4,6.0644095E-5,6.6659413E-6,0E0,0E0,1.161214E-4,1.3799038E-4,1.8617387E-4,9.602081E-6,3.3614073E-5,8.9651585E-6,1.9533472E-6,1.1837958E-5,0E0,0E0,0E0,0E0,0E0,0E0,0E0,0E0,0E0,0E0,0E0,0E0],"parents":[2147483647,0,0,2,2,3,3,4,4,5,5,6,6,9,9,10,10,11,11,12,12,13,13,14,14,15,15,16,16],"right_children":[2,-1,4,6,8,10,12,-1,-1,14,16,18,20,22,24,26,28,-1,-1,-1,-1,-1,-1,-1,-1,-1,-1,-1,-1],"split_conditions":[1.5E0,3.2514956E-2,2.725E2,5.5E0,2.9E2,2.05E2,1.775E2,1.0443878E-2,1.834488E-3,2.5E0,2.25E2,1.675E2,1.875E2,1.825E2,1.7E2,2.15E2,2.4E2,2.8839111E-3,-1.3092041E-3,3.5659792E-3,8.514405E-4,1.4350892E-3,-4.0340426E-4,-5.310059E-4,-2.4959566E-3,2.4925233E-3,6.3743594E-4,1.3446808E-4,-9.429932E-4],"split_indices":[1,0,0,2,0,0,0,0,0,2,0,0,0,0,0,0,0,0,0,0,0,0,0,0,0,0,0,0,0],"split_type":[0,0,0,0,0,0,0,0,0,0,0,0,0,0,0,0,0,0,0,0,0,0,0,0,0,0,0,0,0],"sum_hessian":[1.6E1,1E0,1.5E1,1.3E1,2E0,9E0,4E0,1E0,1E0,4E0,5E0,2E0,2E0,2E0,2E0,2E0,3E0,1E0,1E0,1E0,1E0,1E0,1E0,1E0,1E0,1E0,1E0,1E0,2E0],"tree_param":{"num_deleted":"0","num_feature":"9","num_nodes":"29","size_leaf_vector":"0"}},{"base_weights":[1.6909655E-2,9.213257E-2,6.449938E-3,2.4008069E-3,2.3195902E-2,-3.3950804E-5,6.790161E-3,2.9594421E-2,5.1994324E-3,-2.2605895E-3,1.82724E-3,2.9754639E-3,8.341472E-3,1.9493103E-3,-5.7169595E-3,5.9127808E-3,-1.6937256E-3,8.171082E-3,-3.7078857E-3,1.0101318E-2,2.4108887E-3,4.0664673E-3,-1.1425018E-3,-1.5029907E-3,-7.0724487E-3,7.0648193E-3,1.8043518E-3,-3.560384E-5,-3.3340454E-3],"categories":[],"categories_nodes":[],"categories_segments":[],"categories_sizes":[],"default_left":[1,0,1,1,1,1,1,0,0,1,1,1,1,1,1,1,1,0,0,0,0,0,0,0,0,0,0,0,0],"id":47,"left_children":[1,-1,3,5,7,9,11,-1,-1,13,15,17,19,21,23,25,27,-1,-1,-1,-1,-1,-1,-1,-1,-1,-1,-1,-1],"loss_changes":[1.2781529E-2,0E0,1.0292167E-3,1.4984873E-4,1.9157806E-4,4.5572637E-5,4.769143E-6,0E0,0E0,8.3898994E-5,9.632492E-5,1.3446982E-4,6.9576054E-6,2.4283501E-5,6.5061395E-6,1.4517864E-6,1.0760696E-5,0E0,0E0,0E0,0E0,0E0,0E0,0E0,0E0,0E0,0E0,0E0,0E0],"parents":[2147483647,0,0,2,2,3,3,4,4,5,5,6,6,9,9,10,10,11,11,12,12,13,13,14,14,15,15,16,16],"right_children":[2,-1,4,6,8,10,12,-1,-1,14,16,18,20,22,24,26,28,-1,-1,-1,-1,-1,-1,-1,-1,-1,-1,-1,-1],"split_conditions":[1.5E0,2.763977E-2,2.725E2,5.5E0,2.9E2,2.05E2,1.775E2,8.878327E-3,1.5598298E-3,2.5E0,2.25E2,1.675E2,1.875E2,1.825E2,1.7E2,2.15E2,2.575E2,2.4513246E-3,-1.1123657E-3,3.0303956E-3,7.232666E-4,1.2199403E-3,-3.4275057E-4,-4.5089723E-4,-2.1217347E-3,2.119446E-3,5.413056E-4,-1.0681152E-5,-1.0002137E-3],"split_indices":[1,0,0,2,0,0,0,0,0,2,0,0,0,0,0,0,0,0,0,0,0,0,0,0,0,0,0,0,0],"split_type":[0,0,0,0,0,0,0,0,0,0,0,0,0,0,0,0,0,0,0,0,0,0,0,0,0,0,0,0,0],"sum_hessian":[1.6E1,1E0,1.5E1,1.3E1,2E0,9E0,4E0,1E0,1E0,4E0,5E0,2E0,2E0,2E0,2E0,2E0,3E0,1E0,1E0,1E0,1E0,1E0,1E0,1E0,1E0,1E0,1E0,2E0,1E0],"tree_param":{"num_deleted":"0","num_feature":"9","num_nodes":"29","size_leaf_vector":"0"}},{"base_weights":[1.43728815E-2,7.8308105E-2,5.4826736E-3,2.040863E-3,1.9716898E-2,-2.670288E-5,5.7678223E-3,2.5154114E-2,4.421234E-3,-1.9203186E-3,1.5557607E-3,2.5227864E-3,7.0902505E-3,1.6568502E-3,-4.8573813E-3,5.025228E-3,-1.4352798E-3,6.942749E-3,-3.1585693E-3,8.590698E-3,2.0446777E-3,3.4561157E-3,-9.7084045E-4,-1.2741089E-3,-6.011963E-3,6.0043335E-3,1.5335083E-3,-2.670288E-5,-2.8305054E-3],"categories":[],"categories_nodes":[],"categories_segments":[],"categories_sizes":[],"default_left":[1,0,1,1,1,1,1,0,0,1,1,1,1,1,1,1,1,0,0,0,0,0,0,0,0,0,0,0,0],"id":48,"left_children":[1,-1,3,5,7,9,11,-1,-1,13,15,17,19,21,23,25,27,-1,-1,-1,-1,-1,-1,-1,-1,-1,-1,-1,-1],"loss_changes":[9.233419E-3,0E0,7.4362464E-4,1.0803429E-4,1.3828522E-4,3.2953336E-5,3.5694393E-6,0E0,0E0,6.05798E-5,6.947652E-5,9.726329E-5,5.1466486E-6,1.7539078E-5,4.751644E-6,1.0485892E-6,7.7855475E-6,0E0,0E0,0E0,0E0,0E0,0E0,0E0,0E0,0E0,0E0,0E0,0E0],"parents":[2147483647,0,0,2,2,3,3,4,4,5,5,6,6,9,9,10,10,11,11,12,12,13,13,14,14,15,15,16,16],"right_children":[2,-1,4,6,8,10,12,-1,-1,14,16,18,20,22,24,26,28,-1,-1,-1,-1,-1,-1,-1,-1,-1,-1,-1,-1],"split_conditions":[1.5E0,2.3492433E-2,2.725E2,5.5E0,2.9E2,2.05E2,1.775E2,7.5462344E-3,1.3263703E-3,2.5E0,2.25E2,1.675E2,1.875E2,1.825E2,1.7E2,2.15E2,2.575E2,2.0828247E-3,-9.4757084E-4,2.5772096E-3,6.1340333E-4,1.0368348E-3,-2.9125216E-4,-3.8223268E-4,-1.8035889E-3,1.8013001E-3,4.600525E-4,-8.010865E-6,-8.4915163E-4],"split_indices":[1,0,0,2,0,0,0,0,0,2,0,0,0,0,0,0,0,0,0,0,0,0,0,0,0,0,0,0,0],"split_type":[0,0,0,0,0,0,0,0,0,0,0,0,0,0,0,0,0,0,0,0,0,0,0,0,0,0,0,0,0],"sum_hessian":[1.6E1,1E0,1.5E1,1.3E1,2E0,9E0,4E0,1E0,1E0,4E0,5E0,2E0,2E0,2E0,2E0,2E0,3E0,1E0,1E0,1E0,1E0,1E0,1E0,1E0,1E0,1E0,1E0,2E0,1E0],"tree_param":{"num_deleted":"0","num_feature":"9","num_nodes":"29","size_leaf_vector":"0"}},{"base_weights":[1.2218251E-2,6.655884E-2,4.662037E-3,1.7373221E-3,1.6756693E-2,-2.1362304E-5,4.9072267E-3,2.1377563E-2,3.7574768E-3,-1.6334534E-3,1.3256073E-3,2.146403E-3,6.032308E-3,1.4076233E-3,-4.1300454E-3,4.272461E-3,-1.2159348E-3,5.9051514E-3,-2.6855469E-3,7.30896E-3,1.739502E-3,2.937317E-3,-8.2588196E-4,-1.083374E-3,-5.1116943E-3,-1.9073486E-5,-2.4032593E-3],"categories":[],"categories_nodes":[],"categories_segments":[],"categories_sizes":[],"default_left":[1,0,1,1,1,1,1,0,0,1,1,1,1,1,1,0,1,0,0,0,0,0,0,0,0,0,0],"id":49,"left_children":[1,-1,3,5,7,9,11,-1,-1,13,15,17,19,21,23,-1,25,-1,-1,-1,-1,-1,-1,-1,-1,-1,-1],"loss_changes":[6.670055E-3,0E0,5.3686294E-4,7.8152894E-5,9.987736E-5,2.3879695E-5,2.582994E-6,0E0,0E0,4.3775188E-5,5.013235E-5,7.034481E-5,3.7273057E-6,1.2675613E-5,3.4344084E-6,7.452909E-7,5.6384124E-6,0E0,0E0,0E0,0E0,0E0,0E0,0E0,0E0,0E0,0E0],"parents":[2147483647,0,0,2,2,3,3,4,4,5,5,6,6,9,9,10,10,11,11,12,12,13,13,14,14,16,16],"right_children":[2,-1,4,6,8,10,12,-1,-1,14,16,18,20,22,24,-1,26,-1,-1,-1,-1,-1,-1,-1,-1,-1,-1],"split_conditions":[1.5E0,1.9967653E-2,2.725E2,5.5E0,2.9E2,2.05E2,1.775E2,6.4132693E-3,1.127243E-3,2.5E0,2.25E2,1.675E2,1.875E2,1.825E2,1.7E2,1.2817383E-3,2.575E2,1.7715455E-3,-8.056641E-4,2.1926882E-3,5.218506E-4,8.811951E-4,-2.477646E-4,-3.2501222E-4,-1.5335084E-3,-5.722046E-6,-7.209778E-4],"split_indices":[1,0,0,2,0,0,0,0,0,2,0,0,0,0,0,0,0,0,0,0,0,0,0,0,0,0,0],"split_type":[0,0,0,0,0,0,0,0,0,0,0,0,0,0,0,0,0,0,0,0,0,0,0,0,0,0,0],"sum_hessian":[1.6E1,1E0,1.5E1,1.3E1,2E0,9E0,4E0,1E0,1E0,4E0,5E0,2E0,2E0,2E0,2E0,2E0,3E0,1E0,1E0,1E0,1E0,1E0,1E0,1E0,1E0,2E0,1E0],"tree_param":{"num_deleted":"0","num_feature":"9","num_nodes":"27","size_leaf_vector":"0"}},{"base_weights":[1.0346917E-2,5.657959E-2,3.921151E-3,1.4290129E-3,1.424408E-2,-8.373261E-5,4.1687014E-3,1.8173218E-2,3.1929016E-3,-1.3900757E-3,1.0188421E-3,1.8208822E-3,5.126953E-3,1.1952718E-3,-3.5120647E-3,4.463196E-3,-5.6266785E-4,5.0201416E-3,-2.2888184E-3,6.210327E-3,1.4801025E-3,2.494812E-3,-7.019043E-4,-9.2315674E-4,-4.34494E-3,7.050832E-4,-1.6428629E-3],"categories":[],"categories_nodes":[],"categories_segments":[],"categories_sizes":[],"default_left":[1,0,1,1,1,1,1,0,0,1,1,1,1,1,1,0,1,0,0,0,0,0,0,0,0,0,0],"id":50,"left_children":[1,-1,3,5,7,9,11,-1,-1,13,15,17,19,21,23,-1,25,-1,-1,-1,-1,-1,-1,-1,-1,-1,-1],"loss_changes":[4.828509E-3,0E0,3.912637E-4,5.837137E-5,7.223949E-5,1.5819676E-5,1.9134386E-6,0E0,0E0,3.1628264E-5,3.5194975E-5,5.0934188E-5,2.6607886E-6,9.1474885E-6,2.4576548E-6,0E0,8.005447E-6,0E0,0E0,0E0,0E0,0E0,0E0,0E0,0E0,0E0,0E0],"parents":[2147483647,0,0,2,2,3,3,4,4,5,5,6,6,9,9,10,10,11,11,12,12,13,13,14,14,16,16],"right_children":[2,-1,4,6,8,10,12,-1,-1,14,16,18,20,22,24,-1,26,-1,-1,-1,-1,-1,-1,-1,-1,-1,-1],"split_conditions":[1.5E0,1.6973877E-2,2.725E2,5.5E0,2.9E2,2.05E2,1.775E2,5.4519656E-3,9.578705E-4,2.5E0,2.15E2,1.675E2,1.875E2,1.825E2,1.7E2,1.3389587E-3,2.4E2,1.5060426E-3,-6.866455E-4,1.8630982E-3,4.4403077E-4,7.4844365E-4,-2.1057129E-4,-2.7694704E-4,-1.3034821E-3,2.1152497E-4,-4.928589E-4],"split_indices":[1,0,0,2,0,0,0,0,0,2,0,0,0,0,0,0,0,0,0,0,0,0,0,0,0,0,0],"split_type":[0,0,0,0,0,0,0,0,0,0,0,0,0,0,0,0,0,0,0,0,0,0,0,0,0,0,0],"sum_hessian":[1.6E1,1E0,1.5E1,1.3E1,2E0,9E0,4E0,1E0,1E0,4E0,5E0,2E0,2E0,2E0,2E0,1E0,4E0,1E0,1E0,1E0,1E0,1E0,1E0,1E0,1E0,2E0,2E0],"tree_param":{"num_deleted":"0","num_feature":"9","num_nodes":"27","size_leaf_vector":"0"}},{"base_weights":[8.800731E-3,4.8095703E-2,3.3388138E-3,1.2212481E-3,1.2107849E-2,-5.8746336E-5,3.5369874E-3,1.5449524E-2,2.7122498E-3,-1.1817932E-3,8.869171E-4,1.5411377E-3,4.3538413E-3,1.0159811E-3,-2.9856365E-3,3.791809E-3,-4.524231E-4,4.2648315E-3,-1.953125E-3,5.279541E-3,1.2512207E-3,2.1209717E-3,-5.970001E-4,-7.8582764E-4,-3.692627E-3,3.3473969E-4,-1.8005371E-3],"categories":[],"categories_nodes":[],"categories_segments":[],"categories_sizes":[],"default_left":[1,0,1,1,1,1,1,0,0,1,1,1,1,1,1,0,1,0,0,0,0,0,0,0,0,0,0],"id":51,"left_children":[1,-1,3,5,7,9,11,-1,-1,13,15,17,19,21,23,-1,25,-1,-1,-1,-1,-1,-1,-1,-1,-1,-1],"loss_changes":[3.4880573E-3,0E0,2.823174E-4,4.1705647E-5,5.2288146E-5,1.1668396E-5,1.4417164E-6,0E0,0E0,2.2855551E-5,2.5059333E-5,3.6881655E-5,2.0104162E-6,6.613208E-6,1.7639632E-6,0E0,5.908637E-6,0E0,0E0,0E0,0E0,0E0,0E0,0E0,0E0,0E0,0E0],"parents":[2147483647,0,0,2,2,3,3,4,4,5,5,6,6,9,9,10,10,11,11,12,12,13,13,14,14,16,16],"right_children":[2,-1,4,6,8,10,12,-1,-1,14,16,18,20,22,24,-1,26,-1,-1,-1,-1,-1,-1,-1,-1,-1,-1],"split_conditions":[1.5E0,1.44287115E-2,2.725E2,5.5E0,2.9E2,2.05E2,1.775E2,4.634857E-3,8.1367494E-4,2.5E0,2.15E2,1.675E2,1.875E2,1.825E2,1.7E2,1.1375428E-3,2.575E2,1.2794496E-3,-5.859375E-4,1.5838624E-3,3.7536622E-4,6.362915E-4,-1.7910004E-4,-2.357483E-4,-1.1077882E-3,1.0042191E-4,-5.4016116E-4],"split_indices":[1,0,0,2,0,0,0,0,0,2,0,0,0,0,0,0,0,0,0,0,0,0,0,0,0,0,0],"split_type":[0,0,0,0,0,0,0,0,0,0,0,0,0,0,0,0,0,0,0,0,0,0,0,0,0,0,0],"sum_hessian":[1.6E1,1E0,1.5E1,1.3E1,2E0,9E0,4E0,1E0,1E0,4E0,5E0,2E0,2E0,2E0,2E0,1E0,4E0,1E0,1E0,1E0,1E0,1E0,1E0,1E0,1E0,3E0,1E0],"tree_param":{"num_deleted":"0","num_feature":"9","num_nodes":"27","size_leaf_vector":"0"}},{"base_weights":[7.472431E-3,4.0878296E-2,2.829671E-3,1.0290146E-3,1.028951E-2,-6.23703E-5,3.0059814E-3,1.3130188E-2,2.3040771E-3,-1.0055542E-3,7.3401135E-4,1.3071696E-3,3.7027996E-3,8.6466473E-4,-2.5405884E-3,3.2196045E-3,-4.070282E-4,3.6239624E-3,-1.663208E-3,4.486084E-3,1.0681152E-3,1.8043518E-3,-5.0735474E-4,-6.713867E-4,-3.1394958E-3,2.579689E-4,-1.5335083E-3],"categories":[],"categories_nodes":[],"categories_segments":[],"categories_sizes":[],"default_left":[1,0,1,1,1,1,1,0,0,1,1,1,1,1,1,0,1,0,0,0,0,0,0,0,0,0,0],"id":52,"left_children":[1,-1,3,5,7,9,11,-1,-1,13,15,17,19,21,23,-1,25,-1,-1,-1,-1,-1,-1,-1,-1,-1,-1],"loss_changes":[2.5209498E-3,0E0,2.0433364E-4,3.0394329E-5,3.7799153E-5,8.249432E-6,1.0786243E-6,0E0,0E0,1.6551006E-5,1.8327431E-5,2.6672651E-5,1.3994686E-6,4.7832536E-6,1.2506207E-6,0E0,4.1411276E-6,0E0,0E0,0E0,0E0,0E0,0E0,0E0,0E0,0E0,0E0],"parents":[2147483647,0,0,2,2,3,3,4,4,5,5,6,6,9,9,10,10,11,11,12,12,13,13,14,14,16,16],"right_children":[2,-1,4,6,8,10,12,-1,-1,14,16,18,20,22,24,-1,26,-1,-1,-1,-1,-1,-1,-1,-1,-1,-1],"split_conditions":[1.5E0,1.2263489E-2,2.725E2,5.5E0,2.9E2,2.05E2,1.775E2,3.939057E-3,6.912232E-4,2.5E0,2.15E2,1.675E2,1.875E2,1.825E2,1.7E2,9.658814E-4,2.575E2,1.0871887E-3,-4.989624E-4,1.3458253E-3,3.2043457E-4,5.413056E-4,-1.5220643E-4,-2.0141603E-4,-9.418488E-4,7.739067E-5,-4.600525E-4],"split_indices":[1,0,0,2,0,0,0,0,0,2,0,0,0,0,0,0,0,0,0,0,0,0,0,0,0,0,0],"split_type":[0,0,0,0,0,0,0,0,0,0,0,0,0,0,0,0,0,0,0,0,0,0,0,0,0,0,0],"sum_hessian":[1.6E1,1E0,1.5E1,1.3E1,2E0,9E0,4E0,1E0,1E0,4E0,5E0,2E0,2E0,2E0,2E0,1E0,4E0,1E0,1E0,1E0,1E0,1E0,1E0,1E0,1E0,3E0,1E0],"tree_param":{"num_deleted":"0","num_feature":"9","num_nodes":"27","size_leaf_vector":"0"}},{"base_weights":[6.3472074E-3,3.4744263E-2,2.400875E-3,8.69751E-4,8.74583E-3,-6.1035156E-5,2.5573731E-3,1.1161804E-2,1.9569397E-3,3.9291382E-4,-1.2512207E-3,2.7389526E-3,-3.3351354E-4,5.009969E-4,-2.670288E-3],"categories":[],"categories_nodes":[],"categories_segments":[],"categories_sizes":[],"default_left":[1,0,1,1,1,1,0,0,0,1,0,0,1,0,0],"id":53,"left_children":[1,-1,3,5,7,9,-1,-1,-1,11,-1,-1,13,-1,-1],"loss_changes":[1.8216751E-3,0E0,1.478319E-4,2.2147502E-5,2.7362388E-5,5.894457E-6,8.2093175E-7,0E0,0E0,1.4547291E-5,0E0,0E0,1.4988244E-5,0E0,0E0],"parents":[2147483647,0,0,2,2,3,3,4,4,5,5,9,9,12,12],"right_children":[2,-1,4,6,8,10,-1,-1,-1,12,-1,-1,14,-1,-1],"split_conditions":[1.5E0,1.0423279E-2,2.725E2,5.5E0,2.9E2,4.5E0,7.6721195E-4,3.3485414E-3,5.8708194E-4,3.5E0,-3.7536622E-4,8.216858E-4,2.5E0,1.5029908E-4,-8.010865E-4],"split_indices":[1,0,0,2,0,2,0,0,0,1,0,0,2,0,0],"split_type":[0,0,0,0,0,0,0,0,0,0,0,0,0,0,0],"sum_hessian":[1.6E1,1E0,1.5E1,1.3E1,2E0,9E0,4E0,1E0,1E0,7E0,2E0,1E0,6E0,5E0,1E0],"tree_param":{"num_deleted":"0","num_feature":"9","num_nodes":"15","size_leaf_vector":"0"}},{"base_weights":[5.321615E-3,2.9525757E-2,1.9634962E-3,6.5054215E-4,7.4361167E-3,-3.4737587E-4,1.6980852E-3,9.490967E-3,1.663208E-3,-1.8501282E-3,4.6189627E-4,2.7122498E-3,2.593994E-4,1.8132528E-3,-6.670952E-4,3.2602947E-3,5.340576E-4,1.546224E-3,-1.8005371E-3,2.3269653E-3,3.9291382E-4,1.2302399E-4,-9.7147626E-4,-3.8146973E-4,2.7008057E-3],"categories":[],"categories_nodes":[],"categories_segments":[],"categories_sizes":[],"default_left":[1,0,1,1,1,1,1,0,0,0,1,1,1,1,1,0,0,1,0,0,0,0,0,0,0],"id":54,"left_children":[1,-1,3,5,7,9,11,-1,-1,-1,13,15,17,19,21,-1,-1,23,-1,-1,-1,-1,-1,-1,-1],"loss_changes":[1.3237927E-3,0E0,1.1012727E-4,1.5224943E-5,1.980194E-5,1.0583652E-5,9.509893E-6,0E0,0E0,5.455149E-7,1.0363631E-5,3.0338015E-6,1.3387142E-5,1.2746414E-6,1.081504E-6,0E0,0E0,7.707315E-6,0E0,0E0,0E0,0E0,0E0,0E0,0E0],"parents":[2147483647,0,0,2,2,3,3,4,4,5,5,6,6,10,10,11,11,12,12,13,13,14,14,17,17],"right_children":[2,-1,4,6,8,10,12,-1,-1,-1,14,16,18,20,22,-1,-1,24,-1,-1,-1,-1,-1,-1,-1],"split_conditions":[1.5E0,8.857727E-3,2.725E2,5E-1,2.9E2,2.05E2,5E-1,2.8472901E-3,4.989624E-4,-5.5503845E-4,2.25E2,1.875E2,1.675E2,2.15E2,2.4E2,9.780885E-4,1.6021729E-4,1.55E2,-5.4016116E-4,6.980896E-4,1.1787415E-4,3.6907197E-5,-2.9144288E-4,-1.14440925E-4,8.1024173E-4],"split_indices":[1,0,0,3,0,0,6,0,0,0,0,0,0,0,0,0,0,0,0,0,0,0,0,0,0],"split_type":[0,0,0,0,0,0,0,0,0,0,0,0,0,0,0,0,0,0,0,0,0,0,0,0,0],"sum_hessian":[1.6E1,1E0,1.5E1,1.3E1,2E0,7E0,6E0,1E0,1E0,2E0,5E0,3E0,3E0,2E0,3E0,2E0,1E0,2E0,1E0,1E0,1E0,1E0,2E0,1E0,1E0],"tree_param":{"num_deleted":"0","num_feature":"9","num_nodes":"25","size_leaf_vector":"0"}},{"base_weights":[4.521314E-3,2.5100708E-2,1.6663074E-3,5.501338E-4,6.3196816E-3,7.470449E-5,2.2684734E-3,8.06427E-3,1.4152527E-3,1.4724731E-3,-5.548265E-4,2.9449463E-3,4.5776367E-4,-3.2043457E-4,2.1769207E-3,-2.3447673E-3,2.9155187E-4,8.7509153E-4,-7.7819824E-4],"categories":[],"categories_nodes":[],"categories_segments":[],"categories_sizes":[],"default_left":[1,0,1,1,1,1,1,0,0,1,1,0,0,0,0,0,1,0,0],"id":55,"left_children":[1,-1,3,5,7,9,11,-1,-1,13,15,-1,-1,-1,-1,-1,17,-1,-1],"loss_changes":[9.569976E-4,0E0,7.962691E-5,1.1267823E-5,1.42556455E-5,1.1376232E-5,2.3265984E-6,0E0,0E0,5.749597E-6,1.4318326E-5,0E0,0E0,0E0,0E0,0E0,5.0506865E-6,0E0,0E0],"parents":[2147483647,0,0,2,2,3,3,4,4,5,5,6,6,9,9,10,10,16,16],"right_children":[2,-1,4,6,8,10,12,-1,-1,14,16,-1,-1,-1,-1,-1,18,-1,-1],"split_conditions":[1.5E0,7.530213E-3,2.725E2,7.5E0,2.9E2,1.7E2,1.875E2,2.419281E-3,4.2457582E-4,1.55E2,1.95E2,8.834839E-4,1.373291E-4,-9.6130374E-5,6.530762E-4,-7.034302E-4,2.4E2,2.6252746E-4,-2.3345948E-4],"split_indices":[1,0,0,2,0,0,0,0,0,0,0,0,0,0,0,0,0,0,0],"split_type":[0,0,0,0,0,0,0,0,0,0,0,0,0,0,0,0,0,0,0],"sum_hessian":[1.6E1,1E0,1.5E1,1.3E1,2E0,1.1E1,2E0,1E0,1E0,3E0,8E0,1E0,1E0,1E0,2E0,2E0,6E0,4E0,2E0],"tree_param":{"num_deleted":"0","num_feature":"9","num_nodes":"19","size_leaf_vector":"0"}},{"base_weights":[3.827039E-3,2.1331787E-2,1.3997555E-3,4.4931684E-4,5.368551E-3,4.1007996E-5,1.9327799E-3,6.8511963E-3,1.2016296E-3,1.1672974E-3,-4.641215E-4,2.5024414E-3,3.9672852E-4,-2.746582E-4,1.739502E-3,-1.5878677E-3,3.6239624E-4,1.8463135E-3,-3.036499E-4],"categories":[],"categories_nodes":[],"categories_segments":[],"categories_sizes":[],"default_left":[1,0,1,1,1,1,1,0,0,1,1,0,0,0,0,0,1,0,0],"id":56,"left_children":[1,-1,3,5,7,9,11,-1,-1,13,15,-1,-1,-1,-1,-1,17,-1,-1],"loss_changes":[6.9245347E-4,0E0,5.794136E-5,8.400696E-6,1.0301599E-5,7.3688316E-6,1.6322983E-6,0E0,0E0,3.7781429E-6,8.934603E-6,0E0,0E0,0E0,0E0,7.420931E-7,6.490777E-6,0E0,0E0],"parents":[2147483647,0,0,2,2,3,3,4,4,5,5,6,6,9,9,10,10,16,16],"right_children":[2,-1,4,6,8,10,12,-1,-1,14,16,-1,-1,-1,-1,-1,18,-1,-1],"split_conditions":[1.5E0,6.3995365E-3,2.725E2,7.5E0,2.9E2,1.7E2,1.875E2,2.055359E-3,3.604889E-4,1.55E2,2.05E2,7.5073243E-4,1.1901856E-4,-8.239746E-5,5.218506E-4,-4.7636035E-4,2.15E2,5.538941E-4,-9.1094975E-5],"split_indices":[1,0,0,2,0,0,0,0,0,0,0,0,0,0,0,0,0,0,0],"split_type":[0,0,0,0,0,0,0,0,0,0,0,0,0,0,0,0,0,0,0],"sum_hessian":[1.6E1,1E0,1.5E1,1.3E1,2E0,1.1E1,2E0,1E0,1E0,3E0,8E0,1E0,1E0,1E0,2E0,3E0,5E0,1E0,4E0],"tree_param":{"num_deleted":"0","num_feature":"9","num_nodes":"19","size_leaf_vector":"0"}},{"base_weights":[3.2730103E-3,1.8127441E-2,1.2116432E-3,4.070827E-4,4.562378E-3,-7.705689E-5,1.2939454E-3,5.821228E-3,1.0223389E-3,-5.523682E-4,3.3187866E-4,1.7293294E-4,-1.0935465E-3,1.5716553E-3,-2.3040772E-4,1.1634827E-4,-8.087158E-4],"categories":[],"categories_nodes":[],"categories_segments":[],"categories_sizes":[],"default_left":[1,0,1,1,1,1,0,0,0,1,1,0,0,0,1,0,0],"id":57,"left_children":[1,-1,3,5,7,9,-1,-1,-1,11,13,-1,-1,-1,15,-1,-1],"loss_changes":[4.985834E-4,0E0,4.1276635E-5,6.1108212E-6,7.417868E-6,2.127036E-6,4.829217E-7,0E0,0E0,2.1516964E-6,4.5447787E-6,2.3112321E-7,4.6570017E-7,0E0,1.0967517E-6,0E0,0E0],"parents":[2147483647,0,0,2,2,3,3,4,4,5,5,9,9,10,10,14,14],"right_children":[2,-1,4,6,8,10,-1,-1,-1,12,14,-1,-1,-1,16,-1,-1],"split_conditions":[1.5E0,5.438233E-3,2.725E2,5.5E0,2.9E2,2.05E2,3.8818363E-4,1.7463685E-3,3.0670167E-4,2.5E0,2.15E2,5.1879884E-5,-3.2806396E-4,4.714966E-4,2.575E2,3.4904482E-5,-2.4261475E-4],"split_indices":[1,0,0,2,0,0,0,0,0,2,0,0,0,0,0,0,0],"split_type":[0,0,0,0,0,0,0,0,0,0,0,0,0,0,0,0,0],"sum_hessian":[1.6E1,1E0,1.5E1,1.3E1,2E0,9E0,4E0,1E0,1E0,4E0,5E0,2E0,2E0,1E0,4E0,3E0,1E0],"tree_param":{"num_deleted":"0","num_feature":"9","num_nodes":"17","size_leaf_vector":"0"}},{"base_weights":[2.7530894E-3,1.5411377E-2,9.987354E-4,3.0980792E-4,3.8808186E-3,1.8119812E-5,1.373291E-3,4.951477E-3,8.69751E-4,8.983612E-4,-3.751119E-4,1.9226074E-3,1.373291E-4,1.856486E-4,1.5182495E-3,-1.5792847E-3,1.9454956E-4,7.095337E-4,-3.6907196E-4],"categories":[],"categories_nodes":[],"categories_segments":[],"categories_sizes":[],"default_left":[1,0,1,1,1,1,1,0,0,1,1,0,0,0,0,0,1,0,0],"id":58,"left_children":[1,-1,3,5,7,9,11,-1,-1,13,15,-1,-1,-1,-1,-1,17,-1,-1],"loss_changes":[3.621291E-4,0E0,3.0566436E-5,4.3179916E-6,5.3649237E-6,4.490652E-6,1.7727725E-6,0E0,0E0,1.4853481E-6,6.4809865E-6,0E0,0E0,1.5996434E-7,0E0,0E0,2.293662E-6,0E0,0E0],"parents":[2147483647,0,0,2,2,3,3,4,4,5,5,6,6,9,9,10,10,16,16],"right_children":[2,-1,4,6,8,10,12,-1,-1,14,16,-1,-1,-1,-1,-1,18,-1,-1],"split_conditions":[1.5E0,4.623413E-3,2.725E2,7.5E0,2.9E2,1.7E2,1.875E2,1.4854432E-3,2.609253E-4,5.5E0,1.95E2,5.767823E-4,4.119873E-5,5.5694585E-5,4.5547486E-4,-4.7378542E-4,2.25E2,2.1286012E-4,-1.10721594E-4],"split_indices":[1,0,0,2,0,0,0,0,0,2,0,0,0,0,0,0,0,0,0],"split_type":[0,0,0,0,0,0,0,0,0,0,0,0,0,0,0,0,0,0,0],"sum_hessian":[1.6E1,1E0,1.5E1,1.3E1,2E0,1.1E1,2E0,1E0,1E0,3E0,8E0,1E0,1E0,2E0,1E0,2E0,6E0,3E0,3E0],"tree_param":{"num_deleted":"0","num_feature":"9","num_nodes":"19","size_leaf_vector":"0"}},{"base_weights":[2.3462633E-3,1.3092041E-2,8.5639954E-4,2.7138848E-4,3.3009846E-3,2.415975E-5,1.1698405E-3,4.211426E-3,7.4005127E-4,7.5531006E-4,-3.0348037E-4,1.6326904E-3,1.2207031E-4,-1.0681152E-4,1.0782877E-3,-1.0719299E-3,2.593994E-4,1.2283325E-3,-1.8005371E-4],"categories":[],"categories_nodes":[],"categories_segments":[],"categories_sizes":[],"default_left":[1,0,1,1,1,1,1,0,0,1,1,0,0,0,0,0,1,0,0],"id":59,"left_children":[1,-1,3,5,7,9,11,-1,-1,13,15,-1,-1,-1,-1,-1,17,-1,-1],"loss_changes":[2.6095362E-4,0E0,2.19859E-5,3.0814613E-6,3.878067E-6,3.103872E-6,1.2555779E-6,0E0,0E0,1.2289577E-6,4.1709604E-6,0E0,0E0,0E0,5.207653E-8,2.886227E-7,2.77597E-6,0E0,0E0],"parents":[2147483647,0,0,2,2,3,3,4,4,5,5,6,6,9,9,10,10,16,16],"right_children":[2,-1,4,6,8,10,12,-1,-1,14,16,-1,-1,-1,-1,-1,18,-1,-1],"split_conditions":[1.5E0,3.9276127E-3,2.725E2,7.5E0,2.9E2,1.7E2,1.875E2,1.2634278E-3,2.2201538E-4,1.55E2,2.05E2,4.8980716E-4,3.6621095E-5,-3.204346E-5,3.2348634E-4,-3.21579E-4,2.15E2,3.6849978E-4,-5.4016116E-5],"split_indices":[1,0,0,2,0,0,0,0,0,0,0,0,0,0,0,0,0,0,0],"split_type":[0,0,0,0,0,0,0,0,0,0,0,0,0,0,0,0,0,0,0],"sum_hessian":[1.6E1,1E0,1.5E1,1.3E1,2E0,1.1E1,2E0,1E0,1E0,3E0,8E0,1E0,1E0,1E0,2E0,3E0,5E0,1E0,4E0],"tree_param":{"num_deleted":"0","num_feature":"9","num_nodes":"19","size_leaf_vector":"0"}},{"base_weights":[2.010121E-3,1.1123657E-2,7.452965E-4,2.506801E-4,2.805074E-3,4.3233234E-5,9.969076E-4,3.578186E-3,6.2942505E-4,6.0272217E-4,-2.102322E-4,5.086263E-5,1.1291504E-3,-1.0401407E-3,1.7547607E-4,4.056295E-4,-6.0272217E-4],"categories":[],"categories_nodes":[],"categories_segments":[],"categories_sizes":[],"default_left":[1,0,1,1,1,1,0,0,0,1,1,0,0,0,1,0,0],"id":60,"left_children":[1,-1,3,5,7,9,-1,-1,-1,11,13,-1,-1,-1,15,-1,-1],"loss_changes":[1.87669E-4,0E0,1.559762E-5,2.124136E-6,2.7938604E-6,1.8284449E-6,8.974846E-7,0E0,0E0,1.1046261E-6,3.0634433E-6,6.53478E-8,0E0,0E0,1.4982166E-6,0E0,0E0],"parents":[2147483647,0,0,2,2,3,3,4,4,5,5,9,9,10,10,14,14],"right_children":[2,-1,4,6,8,10,-1,-1,-1,12,14,-1,-1,-1,16,-1,-1],"split_conditions":[1.5E0,3.3370974E-3,2.725E2,7.5E0,2.9E2,1.7E2,2.990723E-4,1.0734559E-3,1.8882753E-4,5.5E0,1.95E2,1.5258789E-5,3.3874513E-4,-3.1204225E-4,2.575E2,1.2168885E-4,-1.8081666E-4],"split_indices":[1,0,0,2,0,0,0,0,0,2,0,0,0,0,0,0,0],"split_type":[0,0,0,0,0,0,0,0,0,0,0,0,0,0,0,0,0],"sum_hessian":[1.6E1,1E0,1.5E1,1.3E1,2E0,1.1E1,2E0,1E0,1E0,3E0,8E0,2E0,1E0,2E0,6E0,5E0,1E0],"tree_param":{"num_deleted":"0","num_feature":"9","num_nodes":"17","size_leaf_vector":"0"}},{"base_weights":[1.6941744E-3,9.460449E-3,6.175041E-4,1.9454956E-4,2.3854573E-3,4.901886E-4,-1.7111642E-4,3.0441284E-3,5.340576E-4,7.0626393E-4,-5.1116943E-4,1.487732E-4,1.0871887E-3,5.7474774E-4,-5.645752E-4,1.4801025E-3,-4.5776367E-5],"categories":[],"categories_nodes":[],"categories_segments":[],"categories_sizes":[],"default_left":[1,0,1,1,1,1,0,0,0,1,0,1,1,0,0,0,0],"id":61,"left_children":[1,-1,3,5,7,9,-1,-1,-1,11,-1,13,15,-1,-1,-1,-1],"loss_changes":[1.3630732E-4,0E0,1.1500133E-5,1.5973512E-6,2.0326497E-6,2.0919706E-6,7.431303E-7,0E0,0E0,1.3247898E-6,0E0,1.5399613E-6,1.8483843E-6,0E0,0E0,0E0,0E0],"parents":[2147483647,0,0,2,2,3,3,4,4,5,5,9,9,11,11,12,12],"right_children":[2,-1,4,6,8,10,-1,-1,-1,12,-1,14,16,-1,-1,-1,-1],"split_conditions":[1.5E0,2.8381348E-3,2.725E2,3.5E0,2.9E2,2.375E2,-5.133493E-5,9.1323856E-4,1.6021729E-4,1.775E2,-1.5335083E-4,1.675E2,8.5E0,1.7242433E-4,-1.6937256E-4,4.4403077E-4,-1.3732911E-5],"split_indices":[1,0,0,1,0,0,0,0,0,0,0,0,2,0,0,0,0],"split_type":[0,0,0,0,0,0,0,0,0,0,0,0,0,0,0,0,0],"sum_hessian":[1.6E1,1E0,1.5E1,1.3E1,2E0,7E0,6E0,1E0,1E0,6E0,1E0,3E0,3E0,2E0,1E0,2E0,1E0],"tree_param":{"num_deleted":"0","num_feature":"9","num_nodes":"17","size_leaf_vector":"0"}},{"base_weights":[1.4290529E-3,8.041382E-3,5.13196E-4,1.5217917E-4,2.0268757E-3,-6.0081482E-5,5.4626464E-4,2.5863647E-3,4.5394897E-4],"categories":[],"categories_nodes":[],"categories_segments":[],"categories_sizes":[],"default_left":[1,0,1,1,1,0,0,0,0],"id":62,"left_children":[1,-1,3,5,7,-1,-1,-1,-1],"loss_changes":[9.882429E-5,0E0,8.434974E-6,1.2039043E-6,1.4660282E-6,6.1864876E-7,5.0432277E-7,0E0,0E0],"parents":[2147483647,0,0,2,2,3,3,4,4],"right_children":[2,-1,4,6,8,-1,-1,-1,-1],"split_conditions":[1.5E0,2.4124146E-3,2.725E2,5.5E0,2.9E2,-1.8024446E-5,1.6387939E-4,7.7590946E-4,1.361847E-4],"split_indices":[1,0,0,2,0,0,0,0,0],"split_type":[0,0,0,0,0,0,0,0,0],"sum_hessian":[1.6E1,1E0,1.5E1,1.3E1,2E0,9E0,4E0,1E0,1E0],"tree_param":{"num_deleted":"0","num_feature":"9","num_nodes":"9","size_leaf_vector":"0"}},{"base_weights":[1.2049956E-3,6.8359375E-3,4.2581558E-4,1.1771066E-4,1.7217001E-3,2.1972656E-3,3.8528442E-4],"categories":[],"categories_nodes":[],"categories_segments":[],"categories_sizes":[],"default_left":[1,0,1,0,1,0,0],"id":63,"left_children":[1,-1,3,-1,5,-1,-1],"loss_changes":[7.167694E-5,0E0,6.1856317E-6,8.172961E-7,1.0600879E-6,0E0,0E0],"parents":[2147483647,0,0,2,2,4,4],"right_children":[2,-1,4,-1,6,-1,-1],"split_conditions":[1.5E0,2.0507814E-3,2.725E2,3.5313198E-5,2.9E2,6.591797E-4,1.1558533E-4],"split_indices":[1,0,0,0,0,0,0],"split_type":[0,0,0,0,0,0,0],"sum_hessian":[1.6E1,1E0,1.5E1,1.3E1,2E0,1E0,1E0],"tree_param":{"num_deleted":"0","num_feature":"9","num_nodes":"7","size_leaf_vector":"0"}},{"base_weights":[1.0141485E-3,5.8135986E-3,3.5083294E-4,8.705684E-5,1.4648438E-3],"categories":[],"categories_nodes":[],"categories_segments":[],"categories_sizes":[],"default_left":[1,0,1,0,0],"id":64,"left_children":[1,-1,3,-1,-1],"loss_changes":[5.2080744E-5,0E0,4.574066E-6,8.341825E-7,7.6578E-7],"parents":[2147483647,0,0,2,2],"right_children":[2,-1,4,-1,-1],"split_conditions":[1.5E0,1.7440796E-3,2.725E2,2.6117053E-5,4.3945314E-4],"split_indices":[1,0,0,0,0],"split_type":[0,0,0,0,0],"sum_hessian":[1.6E1,1E0,1.5E1,1.3E1,2E0],"tree_param":{"num_deleted":"0","num_feature":"9","num_nodes":"5","size_leaf_vector":"0"}},{"base_weights":[8.382236E-4,4.9438477E-3,2.7263165E-4,6.0898918E-5,1.1698405E-3,1.6479492E-3,1.0681152E-4],"categories":[],"categories_nodes":[],"categories_segments":[],"categories_sizes":[],"default_left":[1,0,1,0,1,0,0],"id":65,"left_children":[1,-1,3,-1,5,-1,-1],"loss_changes":[3.8127986E-5,0E0,2.968254E-6,8.392705E-7,1.3487102E-6,0E0,0E0],"parents":[2147483647,0,0,2,2,4,4],"right_children":[2,-1,4,-1,6,-1,-1],"split_conditions":[1.5E0,1.4831544E-3,2.725E2,1.8269677E-5,2.9E2,4.943848E-4,3.204346E-5],"split_indices":[1,0,0,0,0,0,0],"split_type":[0,0,0,0,0,0,0],"sum_hessian":[1.6E1,1E0,1.5E1,1.3E1,2E0,1E0,1E0],"tree_param":{"num_deleted":"0","num_feature":"9","num_nodes":"7","size_leaf_vector":"0"}},{"base_weights":[7.049336E-4,4.196167E-3,2.2447109E-4,4.2915344E-5,9.969076E-4],"categories":[],"categories_nodes":[],"categories_segments":[],"categories_sizes":[],"default_left":[1,0,1,0,0],"id":66,"left_children":[1,-1,3,-1,-1],"loss_changes":[2.7573999E-5,0E0,2.2010618E-6,8.3511725E-7,9.76647E-7],"parents":[2147483647,0,0,2,2],"right_children":[2,-1,4,-1,-1],"split_conditions":[1.5E0,1.2588501E-3,2.725E2,1.2874604E-5,2.990723E-4],"split_indices":[1,0,0,0,0],"split_type":[0,0,0,0,0],"sum_hessian":[1.6E1,1E0,1.5E1,1.3E1,2E0],"tree_param":{"num_deleted":"0","num_feature":"9","num_nodes":"5","size_leaf_vector":"0"}},{"base_weights":[5.87239E-4,3.5705566E-3,1.7762184E-4,3.2424927E-5,7.960002E-4,1.2512207E-3,-5.722046E-5],"categories":[],"categories_nodes":[],"categories_segments":[],"categories_sizes":[],"default_left":[1,0,1,0,1,0,0],"id":67,"left_children":[1,-1,3,-1,5,-1,-1],"loss_changes":[2.0140098E-5,0E0,1.4107759E-6,8.484082E-7,1.236806E-6,0E0,0E0],"parents":[2147483647,0,0,2,2,4,4],"right_children":[2,-1,4,-1,6,-1,-1],"split_conditions":[1.5E0,1.0711671E-3,2.725E2,9.727479E-6,2.9E2,3.7536622E-4,-1.7166138E-5],"split_indices":[1,0,0,0,0,0,0],"split_type":[0,0,0,0,0,0,0],"sum_hessian":[1.6E1,1E0,1.5E1,1.3E1,2E0,1E0,1E0],"tree_param":{"num_deleted":"0","num_feature":"9","num_nodes":"7","size_leaf_vector":"0"}},{"base_weights":[4.957984E-4,3.036499E-3,1.4722347E-4,2.3841858E-5,6.7392987E-4],"categories":[],"categories_nodes":[],"categories_segments":[],"categories_sizes":[],"default_left":[1,0,1,0,0],"id":68,"left_children":[1,-1,3,-1,-1],"loss_changes":[1.4608575E-5,0E0,1.0237064E-6,8.585216E-7,8.916346E-7],"parents":[2147483647,0,0,2,2],"right_children":[2,-1,4,-1,-1],"split_conditions":[1.5E0,9.109497E-4,2.725E2,7.152558E-6,2.0217897E-4],"split_indices":[1,0,0,0,0],"split_type":[0,0,0,0,0],"sum_hessian":[1.6E1,1E0,1.5E1,1.3E1,2E0],"tree_param":{"num_deleted":"0","num_feature":"9","num_nodes":"5","size_leaf_vector":"0"}},{"base_weights":[4.159142E-4,2.5787354E-3,1.1956692E-4],"categories":[],"categories_nodes":[],"categories_segments":[],"categories_sizes":[],"default_left":[1,0,0],"id":69,"left_children":[1,-1,-1],"loss_changes":[1.0587753E-5,0E0,6.4953144E-7],"parents":[2147483647,0,0],"right_children":[2,-1,-1],"split_conditions":[1.5E0,7.736206E-4,3.5870078E-5],"split_indices":[1,0,0],"split_type":[0,0,0],"sum_hessian":[1.6E1,1E0,1.5E1],"tree_param":{"num_deleted":"0","num_feature":"9","num_nodes":"3","size_leaf_vector":"0"}},{"base_weights":[3.41752E-4,2.1972656E-3,8.845329E-5],"categories":[],"categories_nodes":[],"categories_segments":[],"categories_sizes":[],"default_left":[1,0,0],"id":70,"left_children":[1,-1,-1],"loss_changes":[7.795631E-6,0E0,6.7564935E-7],"parents":[2147483647,0,0],"right_children":[2,-1,-1],"split_conditions":[1.5E0,6.591797E-4,2.6535989E-5],"split_indices":[1,0,0],"split_type":[0,0,0],"sum_hessian":[1.6E1,1E0,1.5E1],"tree_param":{"num_deleted":"0","num_feature":"9","num_nodes":"3","size_leaf_vector":"0"}},{"base_weights":[2.7757534E-4,1.8615723E-3,6.222725E-5],"categories":[],"categories_nodes":[],"categories_segments":[],"categories_sizes":[],"default_left":[1,0,0],"id":71,"left_children":[1,-1,-1],"loss_changes":[5.6830413E-6,0E0,7.012503E-7],"parents":[2147483647,0,0],"right_children":[2,-1,-1],"split_conditions":[1.5E0,5.584717E-4,1.8668175E-5],"split_indices":[1,0,0],"split_type":[0,0,0],"sum_hessian":[1.6E1,1E0,1.5E1],"tree_param":{"num_deleted":"0","num_feature":"9","num_nodes":"3","size_leaf_vector":"0"}},{"base_weights":[2.2865745E-4,1.5869141E-3,4.4584274E-5],"categories":[],"categories_nodes":[],"categories_segments":[],"categories_sizes":[],"default_left":[1,0,0],"id":72,"left_children":[1,-1,-1],"loss_changes":[4.1795647E-6,0E0,7.2379055E-7],"parents":[2147483647,0,0],"right_children":[2,-1,-1],"split_conditions":[1.5E0,4.7607423E-4,1.3375283E-5],"split_indices":[1,0,0],"split_type":[0,0,0],"sum_hessian":[1.6E1,1E0,1.5E1],"tree_param":{"num_deleted":"0","num_feature":"9","num_nodes":"3","size_leaf_vector":"0"}},{"base_weights":[1.892763E-4,-5.1362174E-5,9.841919E-4,-1.7944972E-4,4.7810873E-4,2.5749207E-4,-3.537072E-4,9.1552734E-4,-1.9836426E-4,-8.087158E-4,8.583069E-6,6.713867E-4,-2.58255E-4],"categories":[],"categories_nodes":[],"categories_segments":[],"categories_sizes":[],"default_left":[1,1,0,1,1,0,1,0,0,0,1,0,0],"id":73,"left_children":[1,3,-1,5,7,-1,9,-1,-1,-1,11,-1,-1],"loss_changes":[3.3024342E-6,1.0352572E-6,2.533975E-7,1.0047613E-6,1.0693136E-6,7.416869E-7,1.490548E-6,0E0,0E0,7.0130454E-8,1.2345565E-6,0E0,2.3498598E-7],"parents":[2147483647,0,0,1,1,3,3,4,4,6,6,10,10],"right_children":[2,4,-1,6,8,-1,10,-1,-1,-1,12,-1,-1],"split_conditions":[7.5E0,2.725E2,2.9525757E-4,1.7E2,2.9E2,7.724762E-5,2.05E2,2.746582E-4,-5.950928E-5,-2.4261475E-4,2.15E2,2.0141603E-4,-7.74765E-5],"split_indices":[2,0,0,0,0,0,0,0,0,0,0,0,0],"split_type":[0,0,0,0,0,0,0,0,0,0,0,0,0],"sum_hessian":[1.6E1,1.3E1,3E0,1.1E1,2E0,3E0,8E0,1E0,1E0,3E0,5E0,1E0,4E0],"tree_param":{"num_deleted":"0","num_feature":"9","num_nodes":"13","size_leaf_vector":"0"}},{"base_weights":[1.5887093E-4,1.1901855E-3,2.002716E-5],"categories":[],"categories_nodes":[],"categories_segments":[],"categories_sizes":[],"default_left":[1,0,0],"id":74,"left_children":[1,-1,-1],"loss_changes":[2.410421E-6,0E0,5.481796E-7],"parents":[2147483647,0,0],"right_children":[2,-1,-1],"split_conditions":[1.5E0,3.570557E-4,6.0081484E-6],"split_indices":[1,0,0],"split_type":[0,0,0],"sum_hessian":[1.6E1,1E0,1.5E1],"tree_param":{"num_deleted":"0","num_feature":"9","num_nodes":"3","size_leaf_vector":"0"}},{"base_weights":[1.3474857E-4,1.0070801E-3,1.7285347E-5],"categories":[],"categories_nodes":[],"categories_segments":[],"categories_sizes":[],"default_left":[1,0,0],"id":75,"left_children":[1,-1,-1],"loss_changes":[1.724529E-6,0E0,5.483817E-7],"parents":[2147483647,0,0],"right_children":[2,-1,-1],"split_conditions":[1.5E0,3.0212404E-4,5.185604E-6],"split_indices":[1,0,0],"split_type":[0,0,0],"sum_hessian":[1.6E1,1E0,1.5E1],"tree_param":{"num_deleted":"0","num_feature":"9","num_nodes":"3","size_leaf_vector":"0"}},{"base_weights":[1.1444092E-4,8.544922E-4,1.4781952E-5],"categories":[],"categories_nodes":[],"categories_segments":[],"categories_sizes":[],"default_left":[1,0,0],"id":76,"left_children":[1,-1,-1],"loss_changes":[1.2411656E-6,0E0,5.479286E-7],"parents":[2147483647,0,0],"right_children":[2,-1,-1],"split_conditions":[1.5E0,2.5634767E-4,4.4345857E-6],"split_indices":[1,0,0],"split_type":[0,0,0],"sum_hessian":[1.6E1,1E0,1.5E1],"tree_param":{"num_deleted":"0","num_feature":"9","num_nodes":"3","size_leaf_vector":"0"}},{"base_weights":[9.7835764E-5],"categories":[],"categories_nodes":[],"categories_segments":[],"categories_sizes":[],"default_left":[0],"id":77,"left_children":[-1],"loss_changes":[9.597719E-7],"parents":[2147483647],"right_children":[-1],"split_conditions":[2.9350731E-5],"split_indices":[0],"split_type":[0],"sum_hessian":[1.6E1],"tree_param":{"num_deleted":"0","num_feature":"9","num_nodes":"1","size_leaf_vector":"0"}},{"base_weights":[6.9225534E-5],"categories":[],"categories_nodes":[],"categories_segments":[],"categories_sizes":[],"default_left":[0],"id":78,"left_children":[-1],"loss_changes":[9.828229E-7],"parents":[2147483647],"right_children":[-1],"split_conditions":[2.076766E-5],"split_indices":[0],"split_type":[0],"sum_hessian":[1.6E1],"tree_param":{"num_deleted":"0","num_feature":"9","num_nodes":"1","size_leaf_vector":"0"}},{"base_weights":[4.8917882E-5],"categories":[],"categories_nodes":[],"categories_segments":[],"categories_sizes":[],"default_left":[0],"id":79,"left_children":[-1],"loss_changes":[9.684451E-7],"parents":[2147483647],"right_children":[-1],"split_conditions":[1.46753655E-5],"split_indices":[0],"split_type":[0],"sum_hessian":[1.6E1],"tree_param":{"num_deleted":"0","num_feature":"9","num_nodes":"1","size_leaf_vector":"0"}},{"base_weights":[3.8146973E-5,-9.100778E-5,4.8065186E-4],"categories":[],"categories_nodes":[],"categories_segments":[],"categories_sizes":[],"default_left":[1,0,0],"id":80,"left_children":[1,-1,-1],"loss_changes":[1.0153204E-6,7.215041E-7,1.509519E-7],"parents":[2147483647,0,0],"right_children":[2,-1,-1],"split_conditions":[7.5E0,-2.7302334E-5,1.4419557E-4],"split_indices":[2,0,0],"split_type":[0,0,0],"sum_hessian":[1.6E1,1.3E1,3E0],"tree_param":{"num_deleted":"0","num_feature":"9","num_nodes":"3","size_leaf_vector":"0"}},{"base_weights":[3.410788E-5],"categories":[],"categories_nodes":[],"categories_segments":[],"categories_sizes":[],"default_left":[0],"id":81,"left_children":[-1],"loss_changes":[9.2794727E-7],"parents":[2147483647],"right_children":[-1],"split_conditions":[1.0232365E-5],"split_indices":[0],"split_type":[0],"sum_hessian":[1.6E1],"tree_param":{"num_deleted":"0","num_feature":"9","num_nodes":"1","size_leaf_vector":"0"}},{"base_weights":[2.5693109E-5],"categories":[],"categories_nodes":[],"categories_segments":[],"categories_sizes":[],"default_left":[0],"id":82,"left_children":[-1],"loss_changes":[9.154683E-7],"parents":[2147483647],"right_children":[-1],"split_conditions":[7.707933E-6],"split_indices":[0],"split_type":[0],"sum_hessian":[1.6E1],"tree_param":{"num_deleted":"0","num_feature":"9","num_nodes":"1","size_leaf_vector":"0"}},{"base_weights":[1.7614926E-5],"categories":[],"categories_nodes":[],"categories_segments":[],"categories_sizes":[],"default_left":[0],"id":83,"left_children":[-1],"loss_changes":[9.020811E-7],"parents":[2147483647],"right_children":[-1],"split_conditions":[5.284478E-6],"split_indices":[0],"split_type":[0],"sum_hessian":[1.6E1],"tree_param":{"num_deleted":"0","num_feature":"9","num_nodes":"1","size_leaf_vector":"0"}},{"base_weights":[1.5258789E-5],"categories":[],"categories_nodes":[],"categories_segments":[],"categories_sizes":[],"default_left":[0],"id":84,"left_children":[-1],"loss_changes":[9.013004E-7],"parents":[2147483647],"right_children":[-1],"split_conditions":[4.577637E-6],"split_indices":[0],"split_type":[0],"sum_hessian":[1.6E1],"tree_param":{"num_deleted":"0","num_feature":"9","num_nodes":"1","size_leaf_vector":"0"}},{"base_weights":[1.3014849E-5],"categories":[],"categories_nodes":[],"categories_segments":[],"categories_sizes":[],"default_left":[0],"id":85,"left_children":[-1],"loss_changes":[9.0136024E-7],"parents":[2147483647],"right_children":[-1],"split_conditions":[3.904455E-6],"split_indices":[0],"split_type":[0],"sum_hessian":[1.6E1],"tree_param":{"num_deleted":"0","num_feature":"9","num_nodes":"1","size_leaf_vector":"0"}},{"base_weights":[1.077091E-5],"categories":[],"categories_nodes":[],"categories_segments":[],"categories_sizes":[],"default_left":[0],"id":86,"left_children":[-1],"loss_changes":[9.0141066E-7],"parents":[2147483647],"right_children":[-1],"split_conditions":[3.2312732E-6],"split_indices":[0],"split_type":[0],"sum_hessian":[1.6E1],"tree_param":{"num_deleted":"0","num_feature":"9","num_nodes":"1","size_leaf_vector":"0"}},{"base_weights":[1.0322122E-5],"categories":[],"categories_nodes":[],"categories_segments":[],"categories_sizes":[],"default_left":[0],"id":87,"left_children":[-1],"loss_changes":[9.0141964E-7],"parents":[2147483647],"right_children":[-1],"split_conditions":[3.0966366E-6],"split_indices":[0],"split_type":[0],"sum_hessian":[1.6E1],"tree_param":{"num_deleted":"0","num_feature":"9","num_nodes":"1","size_leaf_vector":"0"}},{"base_weights":[9.873334E-6],"categories":[],"categories_nodes":[],"categories_segments":[],"categories_sizes":[],"default_left":[0],"id":88,"left_children":[-1],"loss_changes":[9.0142817E-7],"parents":[2147483647],"right_children":[-1],"split_conditions":[2.9620005E-6],"split_indices":[0],"split_type":[0],"sum_hessian":[1.6E1],"tree_param":{"num_deleted":"0","num_feature":"9","num_nodes":"1","size_leaf_vector":"0"}},{"base_weights":[9.424546E-6],"categories":[],"categories_nodes":[],"categories_segments":[],"categories_sizes":[],"default_left":[0],"id":89,"left_children":[-1],"loss_changes":[9.0143635E-7],"parents":[2147483647],"right_children":[-1],"split_conditions":[2.827364E-6],"split_indices":[0],"split_type":[0],"sum_hessian":[1.6E1],"tree_param":{"num_deleted":"0","num_feature":"9","num_nodes":"1","size_leaf_vector":"0"}},{"base_weights":[9.087955E-6],"categories":[],"categories_nodes":[],"categories_segments":[],"categories_sizes":[],"default_left":[0],"id":90,"left_children":[-1],"loss_changes":[9.0229616E-7],"parents":[2147483647],"right_children":[-1],"split_conditions":[2.7263866E-6],"split_indices":[0],"split_type":[0],"sum_hessian":[1.6E1],"tree_param":{"num_deleted":"0","num_feature":"9","num_nodes":"1","size_leaf_vector":"0"}},{"base_weights":[8.7513645E-6],"categories":[],"categories_nodes":[],"categories_segments":[],"categories_sizes":[],"default_left":[0],"id":91,"left_children":[-1],"loss_changes":[9.0315615E-7],"parents":[2147483647],"right_children":[-1],"split_conditions":[2.6254095E-6],"split_indices":[0],"split_type":[0],"sum_hessian":[1.6E1],"tree_param":{"num_deleted":"0","num_feature":"9","num_nodes":"1","size_leaf_vector":"0"}},{"base_weights":[8.414773E-6],"categories":[],"categories_nodes":[],"categories_segments":[],"categories_sizes":[],"default_left":[0],"id":92,"left_children":[-1],"loss_changes":[9.0401636E-7],"parents":[2147483647],"right_children":[-1],"split_conditions":[2.5244321E-6],"split_indices":[0],"split_type":[0],"sum_hessian":[1.6E1],"tree_param":{"num_deleted":"0","num_feature":"9","num_nodes":"1","size_leaf_vector":"0"}},{"base_weights":[8.078183E-6],"categories":[],"categories_nodes":[],"categories_segments":[],"categories_sizes":[],"default_left":[0],"id":93,"left_children":[-1],"loss_changes":[9.0487674E-7],"parents":[2147483647],"right_children":[-1],"split_conditions":[2.423455E-6],"split_indices":[0],"split_type":[0],"sum_hessian":[1.6E1],"tree_param":{"num_deleted":"0","num_feature":"9","num_nodes":"1","size_leaf_vector":"0"}},{"base_weights":[7.741592E-6],"categories":[],"categories_nodes":[],"categories_segments":[],"categories_sizes":[],"default_left":[0],"id":94,"left_children":[-1],"loss_changes":[9.0573724E-7],"parents":[2147483647],"right_children":[-1],"split_conditions":[2.3224775E-6],"split_indices":[0],"split_type":[0],"sum_hessian":[1.6E1],"tree_param":{"num_deleted":"0","num_feature":"9","num_nodes":"1","size_leaf_vector":"0"}},{"base_weights":[7.4050004E-6],"categories":[],"categories_nodes":[],"categories_segments":[],"categories_sizes":[],"default_left":[0],"id":95,"left_children":[-1],"loss_changes":[9.06598E-7],"parents":[2147483647],"right_children":[-1],"split_conditions":[2.2215002E-6],"split_indices":[0],"split_type":[0],"sum_hessian":[1.6E1],"tree_param":{"num_deleted":"0","num_feature":"9","num_nodes":"1","size_leaf_vector":"0"}},{"base_weights":[7.0684096E-6],"categories":[],"categories_nodes":[],"categories_segments":[],"categories_sizes":[],"default_left":[0],"id":96,"left_children":[-1],"loss_changes":[9.074589E-7],"parents":[2147483647],"right_children":[-1],"split_conditions":[2.120523E-6],"split_indices":[0],"split_type":[0],"sum_hessian":[1.6E1],"tree_param":{"num_deleted":"0","num_feature":"9","num_nodes":"1","size_leaf_vector":"0"}},{"base_weights":[6.7318188E-6],"categories":[],"categories_nodes":[],"categories_segments":[],"categories_sizes":[],"default_left":[0],"id":97,"left_children":[-1],